SVM-light Version V6.01
0 # kernel type
3 # kernel parameter -d 
1 # kernel parameter -g 
1 # kernel parameter -s 
1 # kernel parameter -r 
empty# kernel parameter -u 
3 # highest feature index 
32577 # number of training documents 
11058 # number of support vectors plus 1 
0 # threshold b, each following line is a SV (starting with alpha*y)
-147016.89541449712123721837997437 1:-0.001455 2:-0.001223 3:0.0096239997 #
-12251.407951208093436434864997864 1:-0.001937 2:-0.00071599998 3:0.000424 #
-147016.89541449712123721837997437 1:0.0032929999 2:0.003425 3:0 #
-147016.89541449712123721837997437 1:-0.0062600002 2:0.0033819999 3:0.0118 #
-147016.89541449712123721837997437 1:-0.000848 2:-0.0099919997 3:0.014061 #
-147016.89541449712123721837997437 1:0.0033489999 2:0.0065950002 3:0.01359 #
1047762.5095272600883617997169495 1:-0.006813 2:-0.006815 3:0 #
-147016.89541449712123721837997437 1:-0.006813 2:-0.00049900002 3:0.013744 #
-147016.89541449712123721837997437 1:-0.00098400004 2:-0.0099919997 3:0.013116 #
-147016.89541449712123721837997437 1:0.0023769999 2:0.0078090001 3:0.012799 #
1047762.5095272600883617997169495 1:-0.003423 2:-0.0099919997 3:0.003608 #
-12251.407951208093436434864997864 1:-0.006813 2:-1e-06 3:0.011339 #
-147016.89541449712123721837997437 1:-0.006813 2:-0.00034699999 3:0.013793 #
1047762.5095272600883617997169495 1:0.00031800001 2:0.001358 3:4.7000001e-05 #
1047762.5095272600883617997169495 1:-0.001489 2:-0.0099919997 3:0 #
-147016.89541449712123721837997437 1:0.0046839998 2:-0.0099919997 3:0.014228 #
1047762.5095272600883617997169495 1:-0.0039400002 2:0.001372 3:0 #
-147016.89541449712123721837997437 1:-0.006813 2:0.007491 3:0.014243 #
-12251.407951208093436434864997864 1:-0.0060879998 2:-0.001196 3:0.01284 #
-147016.89541449712123721837997437 1:-0.004131 2:-0.002562 3:0.012414 #
-147016.89541449712123721837997437 1:-0.0060970001 2:-0.001607 3:0.014262 #
-147016.89541449712123721837997437 1:-0.0061900001 2:-0.001676 3:0.014213 #
-147016.89541449712123721837997437 1:-0.0065910001 2:-0.001071 3:0.013702 #
-12251.407951208093436434864997864 1:-0.00046499999 2:-0.0062569999 3:0.00049399998 #
-12251.407951208093436434864997864 1:-0.00027799999 2:-0.0077880002 3:0 #
1047762.5095272600883617997169495 1:0.002571 2:-0.0070560002 3:0.00039299999 #
-12251.407951208093436434864997864 1:-0.002876 2:0.011739 3:0 #
1047762.5095272600883617997169495 1:-0.006813 2:0.0082040001 3:0.0075420002 #
1047762.5095272600883617997169495 1:-0.001709 2:0.0029259999 3:0.012719 #
-147016.89541449712123721837997437 1:0.004925 2:-0.0099919997 3:0.008932 #
1047762.5095272600883617997169495 1:0.0050969999 2:-0.0099919997 3:0.007894 #
-147016.89541449712123721837997437 1:-0.00060700002 2:0.0085169999 3:0.012745 #
1047762.5095272600883617997169495 1:-0.00049399998 2:-0.0099919997 3:0.000203 #
-12251.407951208093436434864997864 1:-0.00032600001 2:-0.0071609998 3:0 #
-12251.407951208093436434864997864 1:-0.004216 2:-0.00068400003 3:0 #
1047762.5095272600883617997169495 1:0.001417 2:-0.00065599999 3:0 #
-12251.407951208093436434864997864 1:-0.00036599999 2:-0.0069880001 3:0 #
-12251.407951208093436434864997864 1:-0.00028800001 2:-0.0077260002 3:3.2e-05 #
-12251.407951208093436434864997864 1:-0.0043330002 2:0.0083699999 3:3.6000001e-05 #
-12251.407951208093436434864997864 1:-0.00039599999 2:-0.0070400001 3:5.6000001e-05 #
-12251.407951208093436434864997864 1:-0.000359 2:-0.0073839999 3:0 #
-12251.407951208093436434864997864 1:-0.00052 2:-0.006575 3:0 #
-12251.407951208093436434864997864 1:-0.0027950001 2:0.0080009997 3:0.000833 #
-12251.407951208093436434864997864 1:-0.00055 2:-0.007057 3:0 #
-147016.89541449712123721837997437 1:0.0047160001 2:0.0025569999 3:0.014104 #
-12251.407951208093436434864997864 1:-0.000589 2:-0.0068199998 3:0 #
-12251.407951208093436434864997864 1:-0.000696 2:-0.006509 3:0 #
-12251.407951208093436434864997864 1:-0.000657 2:-0.0067360001 3:0 #
-12251.407951208093436434864997864 1:-0.005591 2:0.00069000002 3:0.0097340001 #
-12251.407951208093436434864997864 1:-0.0029470001 2:-0.0053030001 3:0.00069000002 #
-12251.407951208093436434864997864 1:-0.0051020002 2:0.0079669999 3:0.0019970001 #
-12251.407951208093436434864997864 1:-0.000719 2:-0.007375 3:0.00097699999 #
-12251.407951208093436434864997864 1:-0.0063439999 2:-0.001403 3:0.0062489999 #
1047762.5095272600883617997169495 1:-0.001072 2:0.001831 3:0.00040200001 #
-12251.407951208093436434864997864 1:-0.006813 2:-0.001496 3:0.0087839998 #
-12251.407951208093436434864997864 1:-0.00069700001 2:-0.0073219999 3:2.9000001e-05 #
-12251.407951208093436434864997864 1:-0.00081900001 2:-0.0061650001 3:0 #
-147016.89541449712123721837997437 1:-0.006813 2:0.0065990002 3:0.01418 #
-12251.407951208093436434864997864 1:-0.001014 2:-0.0047860001 3:0 #
-12251.407951208093436434864997864 1:-0.0038749999 2:0.007489 3:0 #
1047762.5095272600883617997169495 1:-0.002564 2:-0.0099919997 3:0.014155 #
-147016.89541449712123721837997437 1:-0.006813 2:0.007187 3:0.01403 #
-12251.407951208093436434864997864 1:-0.00090799999 2:-0.0076270001 3:0.0010939999 #
-12251.407951208093436434864997864 1:-0.0030650001 2:-0.001854 3:0.004648 #
-12251.407951208093436434864997864 1:-0.0051930002 2:-0.0099919997 3:0.014255 #
-147016.89541449712123721837997437 1:-0.0061769998 2:0.0071200002 3:0.014266 #
-12251.407951208093436434864997864 1:-0.006813 2:0.0075480002 3:0.00297 #
-12251.407951208093436434864997864 1:-0.001256 2:-0.0043299999 3:0 #
-12251.407951208093436434864997864 1:-0.0025170001 2:-0.0022849999 3:0.0030670001 #
-12251.407951208093436434864997864 1:0.0029869999 2:-0.0099919997 3:0 #
-12251.407951208093436434864997864 1:-0.001441 2:-0.0039869999 3:0 #
-12251.407951208093436434864997864 1:-0.006813 2:0.007185 3:0 #
-12251.407951208093436434864997864 1:0.002692 2:-0.0099919997 3:0 #
-12251.407951208093436434864997864 1:-0.001657 2:-0.003644 3:0.00027300001 #
-12251.407951208093436434864997864 1:-0.001248 2:-0.004927 3:0 #
-12251.407951208093436434864997864 1:-0.0029760001 2:-0.001186 3:0 #
-12251.407951208093436434864997864 1:-0.003094 2:-0.001092 3:0 #
-12251.407951208093436434864997864 1:0.0025450001 2:-0.0099919997 3:0 #
-12251.407951208093436434864997864 1:-0.003357 2:-0.000711 3:0 #
-147016.89541449712123721837997437 1:0.00465 2:0.000432 3:0 #
-12251.407951208093436434864997864 1:-0.00081900001 2:-0.007772 3:0.001274 #
-12251.407951208093436434864997864 1:0.002537 2:-0.0099919997 3:0 #
-12251.407951208093436434864997864 1:0.00242 2:-0.0099919997 3:4e-06 #
-12251.407951208093436434864997864 1:-0.0028659999 2:-0.0014600001 3:0 #
-12251.407951208093436434864997864 1:-0.0027640001 2:-0.0058400002 3:0.0019340001 #
-12251.407951208093436434864997864 1:-0.006813 2:0.0070039998 3:0.00032200001 #
-12251.407951208093436434864997864 1:0.0022479999 2:-0.0099919997 3:0 #
-12251.407951208093436434864997864 1:0.0021929999 2:-0.0099919997 3:0 #
-147016.89541449712123721837997437 1:0.004859 2:0.0013229999 3:0.014257 #
-12251.407951208093436434864997864 1:-0.001769 2:-0.0036299999 3:0 #
-12251.407951208093436434864997864 1:-0.0045380001 2:-0.0099919997 3:0.014177 #
1047762.5095272600883617997169495 1:-0.003363 2:-0.0099919997 3:0.01031 #
-12251.407951208093436434864997864 1:-0.006813 2:-0.0035999999 3:0.014284 #
-12251.407951208093436434864997864 1:-0.006813 2:0.0063769999 3:0 #
-12251.407951208093436434864997864 1:-0.006813 2:-0.0022430001 3:0.0091869999 #
-12251.407951208093436434864997864 1:-0.0030980001 2:-0.001168 3:0 #
-12251.407951208093436434864997864 1:-0.002841 2:-0.001559 3:0 #
-12251.407951208093436434864997864 1:0.002139 2:-0.0099919997 3:0 #
-12251.407951208093436434864997864 1:-0.001061 2:-0.0061209998 3:0 #
-147016.89541449712123721837997437 1:0.0045070001 2:-0.0099919997 3:0.013822 #
-12251.407951208093436434864997864 1:-0.002939 2:-0.001483 3:7.0000002e-05 #
-12251.407951208093436434864997864 1:-0.0028820001 2:-0.0016120001 3:0 #
-12251.407951208093436434864997864 1:-0.0028570001 2:-0.001683 3:0 #
-12251.407951208093436434864997864 1:-0.003085 2:-0.0011840001 3:0 #
1047762.5095272600883617997169495 1:-0.001177 2:-0.0099919997 3:0.014284 #
-12251.407951208093436434864997864 1:-0.002045 2:-0.0031699999 3:0 #
-12251.407951208093436434864997864 1:-0.001824 2:-0.003492 3:0.00041400001 #
-12251.407951208093436434864997864 1:-0.0028609999 2:-0.00174 3:7.3000003e-05 #
-12251.407951208093436434864997864 1:-0.003206 2:-0.00079100003 3:0 #
-12251.407951208093436434864997864 1:-0.002536 2:-0.0023620001 3:0 #
-12251.407951208093436434864997864 1:-0.0024290001 2:-0.002541 3:0 #
-12251.407951208093436434864997864 1:0.001868 2:-0.0099919997 3:0 #
-12251.407951208093436434864997864 1:-0.002478 2:-0.00248 3:0 #
-12251.407951208093436434864997864 1:-0.002631 2:-0.0023449999 3:0 #
-12251.407951208093436434864997864 1:0.002295 2:-0.0099919997 3:0.0010470001 #
-12251.407951208093436434864997864 1:-0.002442 2:-0.0027040001 3:0 #
-12251.407951208093436434864997864 1:-0.002505 2:-0.00241 3:1.8000001e-05 #
-12251.407951208093436434864997864 1:0.001839 2:-0.0099919997 3:0 #
-12251.407951208093436434864997864 1:-0.002415 2:-0.002777 3:0 #
-12251.407951208093436434864997864 1:-0.002177 2:-0.003152 3:0 #
-12251.407951208093436434864997864 1:-0.003364 2:-0.000428 3:0 #
-12251.407951208093436434864997864 1:-0.0023980001 2:-0.00281 3:0.000128 #
-12251.407951208093436434864997864 1:-0.005039 2:0.00063199998 3:0 #
-12251.407951208093436434864997864 1:-0.006813 2:0.0061929999 3:0 #
-12251.407951208093436434864997864 1:0.001909 2:-0.0099919997 3:2.7e-05 #
-12251.407951208093436434864997864 1:-0.0058880001 2:0.006447 3:0 #
-12251.407951208093436434864997864 1:-0.006813 2:-0.001135 3:0.010235 #
-12251.407951208093436434864997864 1:0.0023010001 2:-0.0099919997 3:0.001573 #
-12251.407951208093436434864997864 1:-0.001931 2:-0.003666 3:0 #
-12251.407951208093436434864997864 1:-0.003236 2:-0.00061300001 3:0 #
-12251.407951208093436434864997864 1:-0.002471 2:-0.002838 3:0 #
-12251.407951208093436434864997864 1:-0.002269 2:-0.0031399999 3:0 #
-12251.407951208093436434864997864 1:0.001742 2:-0.0099919997 3:0 #
-12251.407951208093436434864997864 1:-0.002084 2:-0.003266 3:0.00057099998 #
-12251.407951208093436434864997864 1:-0.00176 2:-0.004129 3:4.8999998e-05 #
-12251.407951208093436434864997864 1:-0.002175 2:-0.0034479999 3:9.6000003e-05 #
-12251.407951208093436434864997864 1:0.001738 2:-0.0099919997 3:0 #
-12251.407951208093436434864997864 1:0.001725 2:-0.0099919997 3:0 #
-12251.407951208093436434864997864 1:-0.001853 2:-0.0040620002 3:0 #
-147016.89541449712123721837997437 1:0.003755 2:-0.0099919997 3:0.014173 #
-12251.407951208093436434864997864 1:-0.0022740001 2:-0.0032639999 3:0.000126 #
-12251.407951208093436434864997864 1:-0.0021889999 2:-0.0035870001 3:0 #
-12251.407951208093436434864997864 1:-0.0042269998 2:-0.0099919997 3:0.014284 #
-12251.407951208093436434864997864 1:-0.006813 2:0.0059969998 3:0 #
-12251.407951208093436434864997864 1:-0.006813 2:-0.0037209999 3:0.014248 #
-12251.407951208093436434864997864 1:-0.0019499999 2:-0.0040239999 3:0 #
-12251.407951208093436434864997864 1:-0.001756 2:-0.0043540001 3:0 #
-12251.407951208093436434864997864 1:0.00034500001 2:0.006174 3:3.7000002e-05 #
-12251.407951208093436434864997864 1:-0.001723 2:-0.0044860002 3:0.00033400001 #
-12251.407951208093436434864997864 1:-0.001749 2:-0.0045380001 3:0 #
-12251.407951208093436434864997864 1:-0.0038709999 2:-0.0099919997 3:0.014284 #
-12251.407951208093436434864997864 1:-0.006813 2:0.0059349998 3:0 #
-12251.407951208093436434864997864 1:0.001818 2:-0.0099919997 3:7.1000002e-05 #
-12251.407951208093436434864997864 1:0.001714 2:-0.0099919997 3:0 #
-12251.407951208093436434864997864 1:-0.001748 2:-0.0046299999 3:0 #
-147016.89541449712123721837997437 1:-0.000527 2:0.0075380001 3:0.0042909998 #
-12251.407951208093436434864997864 1:-0.0015050001 2:-0.004919 3:0 #
-12251.407951208093436434864997864 1:-0.006813 2:-0.00041800001 3:0.0076569999 #
-12251.407951208093436434864997864 1:0.001775 2:-0.0099919997 3:2.6e-05 #
-12251.407951208093436434864997864 1:0.001685 2:-0.0099919997 3:0 #
-12251.407951208093436434864997864 1:-0.0066189999 2:-0.001951 3:0.0072980002 #
-12251.407951208093436434864997864 1:-0.006813 2:-0.000195 3:0.0077820001 #
1047762.5095272600883617997169495 1:-0.001489 2:0.0033760001 3:0.010581 #
-147016.89541449712123721837997437 1:0.0025520001 2:0.0064400001 3:0.013197 #
-12251.407951208093436434864997864 1:-0.0037440001 2:-0.000103 3:0.0022100001 #
-12251.407951208093436434864997864 1:-0.002084 2:-0.0040389998 3:0 #
-12251.407951208093436434864997864 1:-0.0022 2:-0.0037130001 3:0 #
-12251.407951208093436434864997864 1:-0.001087 2:-0.0069249999 3:0.001186 #
-12251.407951208093436434864997864 1:-0.0012450001 2:-0.0058840001 3:0.000895 #
-147016.89541449712123721837997437 1:-0.006813 2:-0.001381 3:0.014241 #
-12251.407951208093436434864997864 1:-0.000527 2:-0.0080420002 3:5.7000001e-05 #
-147016.89541449712123721837997437 1:0.0026400001 2:-0.0099919997 3:0.014284 #
1047762.5095272600883617997169495 1:-0.006813 2:-0.000566 3:0 #
-12251.407951208093436434864997864 1:-0.006813 2:0.0058869999 3:0 #
-12251.407951208093436434864997864 1:-0.0058860001 2:-0.0037110001 3:0.013337 #
-147016.89541449712123721837997437 1:0.0020320001 2:0.006083 3:0.013779 #
-12251.407951208093436434864997864 1:-0.0028329999 2:-0.002567 3:0 #
-12251.407951208093436434864997864 1:0.001677 2:-0.0099919997 3:0 #
-12251.407951208093436434864997864 1:-0.001086 2:-0.0074809999 3:0.0013530001 #
1047762.5095272600883617997169495 1:-0.006813 2:-0.0054120002 3:8e-06 #
-12251.407951208093436434864997864 1:-0.004249 2:-0.0099919997 3:0.014233 #
-12251.407951208093436434864997864 1:0.001706 2:-0.0099919997 3:3.7000002e-05 #
-12251.407951208093436434864997864 1:0.001633 2:-0.0099919997 3:0 #
-12251.407951208093436434864997864 1:0.0016289999 2:-0.0099919997 3:0 #
-12251.407951208093436434864997864 1:0.001578 2:-0.0099919997 3:0 #
-147016.89541449712123721837997437 1:-0.006813 2:0.0063089998 3:0.013416 #
-12251.407951208093436434864997864 1:-0.000535 2:-0.0084549999 3:0 #
-12251.407951208093436434864997864 1:-0.00058499997 2:-0.0087799998 3:0.00015599999 #
-12251.407951208093436434864997864 1:-0.001085 2:-0.007121 3:0.0012150001 #
-12251.407951208093436434864997864 1:-0.006813 2:-0.0024840001 3:0.014284 #
-12251.407951208093436434864997864 1:0.001822 2:-0.0099919997 3:0.000143 #
-12251.407951208093436434864997864 1:-0.0050079999 2:-0.001207 3:0.0091850003 #
-12251.407951208093436434864997864 1:-0.00063700002 2:-0.0078130001 3:0.00012 #
-12251.407951208093436434864997864 1:0.0015670001 2:-0.0099919997 3:0 #
-12251.407951208093436434864997864 1:0.001533 2:-0.0099919997 3:0 #
-12251.407951208093436434864997864 1:0.001517 2:-0.0099919997 3:0 #
-12251.407951208093436434864997864 1:0.001499 2:-0.0099919997 3:0 #
-12251.407951208093436434864997864 1:0.001556 2:-0.0099919997 3:1.8000001e-05 #
-12251.407951208093436434864997864 1:0.0014590001 2:-0.0099919997 3:0 #
-12251.407951208093436434864997864 1:-0.0035079999 2:-0.000267 3:0.000116 #
-12251.407951208093436434864997864 1:-0.00079800002 2:-0.0083879996 3:0.00076099997 #
-12251.407951208093436434864997864 1:-0.0065210001 2:-0.001833 3:0.013612 #
-12251.407951208093436434864997864 1:-0.006813 2:-0.001603 3:0.0087839998 #
1047762.5095272600883617997169495 1:-0.006813 2:-0.002236 3:0.014131 #
-12251.407951208093436434864997864 1:-0.00056800002 2:-0.0082710003 3:0 #
-12251.407951208093436434864997864 1:-0.00057400001 2:-0.008467 3:0 #
-12251.407951208093436434864997864 1:-0.002603 2:-0.0023920001 3:0 #
-12251.407951208093436434864997864 1:-0.00098899996 2:-0.0099919997 3:0.001284 #
-12251.407951208093436434864997864 1:0.0014 2:-0.0099919997 3:0 #
-12251.407951208093436434864997864 1:0.001396 2:-0.0099919997 3:0 #
-147016.89541449712123721837997437 1:-0.0057549998 2:0.0063060001 3:0.013715 #
-12251.407951208093436434864997864 1:-0.00251 2:-0.002534 3:0.001462 #
-12251.407951208093436434864997864 1:-0.000612 2:-0.0079579996 3:3.7999998e-05 #
-12251.407951208093436434864997864 1:-0.0021250001 2:-0.0040150001 3:3.9999999e-05 #
-147016.89541449712123721837997437 1:-0.0049930001 2:0.0054640002 3:0.014284 #
-12251.407951208093436434864997864 1:0.001601 2:-0.0099919997 3:9.4000003e-05 #
-12251.407951208093436434864997864 1:-0.00060199999 2:-0.0081430003 3:0 #
-12251.407951208093436434864997864 1:-0.006813 2:-0.001191 3:0.013903 #
-12251.407951208093436434864997864 1:-0.001258 2:-0.00765 3:0.001808 #
-147016.89541449712123721837997437 1:0.00073500001 2:0.003949 3:0.014237 #
-12251.407951208093436434864997864 1:-0.006813 2:-0.0042980001 3:0.014279 #
-12251.407951208093436434864997864 1:-0.0022720001 2:-0.0033730001 3:0 #
-12251.407951208093436434864997864 1:-0.006813 2:-0.001316 3:0.012307 #
-12251.407951208093436434864997864 1:0.001375 2:-0.0099919997 3:0 #
-12251.407951208093436434864997864 1:0.00136 2:-0.0099919997 3:0 #
-12251.407951208093436434864997864 1:-0.0054990002 2:-0.000201 3:0.0070770001 #
-12251.407951208093436434864997864 1:-0.0053599998 2:-0.0034429999 3:0.010235 #
-12251.407951208093436434864997864 1:0.00135 2:-0.0099919997 3:0 #
-12251.407951208093436434864997864 1:0.001346 2:-0.0099919997 3:0 #
-12251.407951208093436434864997864 1:0.00132 2:-0.0099919997 3:0 #
-12251.407951208093436434864997864 1:0.001311 2:-0.0099919997 3:0 #
-12251.407951208093436434864997864 1:0.001302 2:-0.0099919997 3:0 #
-12251.407951208093436434864997864 1:0.0013 2:-0.0099919997 3:0 #
-12251.407951208093436434864997864 1:0.0012910001 2:-0.0099919997 3:0 #
-12251.407951208093436434864997864 1:0.001286 2:-0.0099919997 3:0 #
-12251.407951208093436434864997864 1:0.001253 2:-0.0099919997 3:0 #
-12251.407951208093436434864997864 1:-0.006813 2:-0.00422 3:0.014233 #
-12251.407951208093436434864997864 1:0.001702 2:-0.0099919997 3:0.00031800001 #
-147016.89541449712123721837997437 1:0.000421 2:0.0062099998 3:0.013844 #
-12251.407951208093436434864997864 1:-0.0056750001 2:-0.0033760001 3:0.010867 #
-12251.407951208093436434864997864 1:0.001236 2:-0.0099919997 3:0 #
-12251.407951208093436434864997864 1:0.00122 2:-0.0099919997 3:0 #
-12251.407951208093436434864997864 1:-0.0054680002 2:-0.001477 3:0.0085899998 #
-12251.407951208093436434864997864 1:-0.0062890002 2:-0.003268 3:0.012491 #
-12251.407951208093436434864997864 1:-0.006813 2:-0.00208 3:0.014191 #
-12251.407951208093436434864997864 1:0.00127 2:-0.0099919997 3:1.9999999e-05 #
-12251.407951208093436434864997864 1:0.001437 2:-0.0099919997 3:0.000145 #
-12251.407951208093436434864997864 1:0.00119 2:-0.0099919997 3:0 #
-12251.407951208093436434864997864 1:0.001168 2:-0.0099919997 3:0 #
-12251.407951208093436434864997864 1:-0.0064340001 2:-0.0026110001 3:0.012597 #
-12251.407951208093436434864997864 1:-0.006813 2:-0.002443 3:0.014284 #
-12251.407951208093436434864997864 1:0.0022839999 2:-0.0099919997 3:0.001557 #
-147016.89541449712123721837997437 1:0.001419 2:0.005376 3:0 #
-12251.407951208093436434864997864 1:-0.0060350001 2:-0.000718 3:0.0096439999 #
-12251.407951208093436434864997864 1:-0.00064799999 2:-0.008897 3:0.00013099999 #
-12251.407951208093436434864997864 1:-0.006813 2:-0.000673 3:0.011576 #
-12251.407951208093436434864997864 1:0.001168 2:-0.0099919997 3:0 #
-12251.407951208093436434864997864 1:0.001162 2:-0.0099919997 3:0 #
-147016.89541449712123721837997437 1:-0.006813 2:0.005349 3:0.014284 #
-12251.407951208093436434864997864 1:0.001725 2:-0.0099919997 3:0.00044800001 #
-12251.407951208093436434864997864 1:-0.00066800002 2:-0.0085140001 3:0 #
-12251.407951208093436434864997864 1:-0.006813 2:-0.00159 3:0.012591 #
-12251.407951208093436434864997864 1:-0.0022179999 2:-0.003451 3:0 #
-12251.407951208093436434864997864 1:0.001553 2:-0.0099919997 3:0.00033000001 #
-12251.407951208093436434864997864 1:-0.00067199999 2:-0.0084570004 3:0 #
-12251.407951208093436434864997864 1:-0.006813 2:-0.0023459999 3:0.013163 #
-12251.407951208093436434864997864 1:-0.001159 2:-0.0061130002 3:9.7999997e-05 #
-12251.407951208093436434864997864 1:-0.006813 2:-0.0031320001 3:0.013579 #
-12251.407951208093436434864997864 1:0.001125 2:-0.0099919997 3:0 #
-12251.407951208093436434864997864 1:0.001112 2:-0.0099919997 3:0 #
-12251.407951208093436434864997864 1:-0.00068900001 2:-0.008444 3:0 #
-12251.407951208093436434864997864 1:-0.006813 2:0.006298 3:0.0045070001 #
-12251.407951208093436434864997864 1:-0.00076600001 2:-0.0082090003 3:0.00040200001 #
-12251.407951208093436434864997864 1:0.001088 2:-0.0099919997 3:0 #
-12251.407951208093436434864997864 1:0.001086 2:-0.0099919997 3:0 #
-12251.407951208093436434864997864 1:0.00165 2:-0.0099919997 3:0.00043099999 #
-12251.407951208093436434864997864 1:-0.006813 2:-0.0031630001 3:0.013575 #
-12251.407951208093436434864997864 1:-0.001844 2:-0.0045250002 3:0 #
-12251.407951208093436434864997864 1:0.00137 2:-0.0099919997 3:0.000201 #
1047762.5095272600883617997169495 1:-0.0059659998 2:0.0058189998 3:0.014115 #
-12251.407951208093436434864997864 1:0.001083 2:-0.0099919997 3:0 #
-12251.407951208093436434864997864 1:0.001081 2:-0.0099919997 3:0 #
-12251.407951208093436434864997864 1:-0.0066479999 2:-0.00321 3:0.013216 #
-12251.407951208093436434864997864 1:-0.006813 2:-0.00465 3:0.014147 #
-12251.407951208093436434864997864 1:-0.0045940001 2:0.001074 3:3.4000001e-05 #
-12251.407951208093436434864997864 1:-0.00071499997 2:-0.0083140004 3:0 #
-12251.407951208093436434864997864 1:-0.006813 2:-0.0042030001 3:0.013986 #
-12251.407951208093436434864997864 1:-0.006813 2:0.005895 3:0.00054600002 #
-12251.407951208093436434864997864 1:-0.00064899999 2:-0.0099919997 3:0.000155 #
-12251.407951208093436434864997864 1:-0.0064969999 2:-0.002508 3:0.0125 #
-12251.407951208093436434864997864 1:0.001076 2:-0.0099919997 3:0 #
-12251.407951208093436434864997864 1:0.001097 2:-0.0099919997 3:9.0000003e-06 #
-12251.407951208093436434864997864 1:-0.006813 2:-0.0046990002 3:0.014119 #
-12251.407951208093436434864997864 1:-0.006813 2:-0.0044880002 3:0.014054 #
-12251.407951208093436434864997864 1:-0.006813 2:-0.002384 3:0.014284 #
-12251.407951208093436434864997864 1:0.001379 2:-0.0099919997 3:0.00023400001 #
-12251.407951208093436434864997864 1:0.00107 2:-0.0099919997 3:0 #
-12251.407951208093436434864997864 1:0.001069 2:-0.0099919997 3:0 #
-12251.407951208093436434864997864 1:0.0010620001 2:-0.0099919997 3:0 #
-12251.407951208093436434864997864 1:0.00106 2:-0.0099919997 3:0 #
-12251.407951208093436434864997864 1:0.00025700001 2:0.0058619999 3:0 #
-12251.407951208093436434864997864 1:0.001698 2:-0.0099919997 3:0.00113 #
-12251.407951208093436434864997864 1:-0.004042 2:-0.0023630001 3:0.0055129998 #
-12251.407951208093436434864997864 1:-0.006813 2:0.0056699999 3:0 #
-12251.407951208093436434864997864 1:-0.006813 2:0.005626 3:0 #
-12251.407951208093436434864997864 1:-0.006813 2:-0.00063000002 3:0.0073409998 #
-147016.89541449712123721837997437 1:0.00053299998 2:0.0065049999 3:0.0068620001 #
-12251.407951208093436434864997864 1:-0.0050949999 2:-0.003389 3:0.0088839997 #
-12251.407951208093436434864997864 1:-0.004805 2:-0.0039650002 3:0.0079110004 #
-12251.407951208093436434864997864 1:-0.0061550001 2:-0.001773 3:0.011244 #
-12251.407951208093436434864997864 1:-0.006813 2:-0.0046939999 3:0.014009 #
-12251.407951208093436434864997864 1:0.001058 2:-0.0099919997 3:0 #
-12251.407951208093436434864997864 1:0.001054 2:-0.0099919997 3:0 #
-12251.407951208093436434864997864 1:0.001051 2:-0.0099919997 3:0 #
1047762.5095272600883617997169495 1:-0.00095299998 2:-0.0099919997 3:0.0012159999 #
-12251.407951208093436434864997864 1:-0.0019950001 2:-0.0099919997 3:0.013527 #
-12251.407951208093436434864997864 1:-0.0067639998 2:-0.0021790001 3:0.012838 #
-12251.407951208093436434864997864 1:-0.0050420002 2:-0.0025800001 3:0.0078750001 #
-12251.407951208093436434864997864 1:0.0016289999 2:-0.0099919997 3:0.0010470001 #
1047762.5095272600883617997169495 1:3.9999999e-05 2:-0.0099919997 3:0.001066 #
-12251.407951208093436434864997864 1:0.001224 2:-0.0099919997 3:0.000187 #
-12251.407951208093436434864997864 1:-0.0059770001 2:-0.0023990001 3:0.010961 #
-12251.407951208093436434864997864 1:-0.0056500002 2:-0.00191 3:0.0094290003 #
-12251.407951208093436434864997864 1:-0.0060569998 2:-0.0015979999 3:0.012953 #
-12251.407951208093436434864997864 1:-0.0054839998 2:-0.002388 3:0.0086989999 #
-12251.407951208093436434864997864 1:-0.00076299999 2:-0.0082529997 3:0 #
-147016.89541449712123721837997437 1:-0.001105 2:-0.0099919997 3:0.013726 #
-12251.407951208093436434864997864 1:-0.006813 2:0.0077289999 3:6.7000001e-05 #
-12251.407951208093436434864997864 1:-0.006813 2:-0.0023630001 3:0.012847 #
-12251.407951208093436434864997864 1:0.00104 2:-0.0099919997 3:0 #
-12251.407951208093436434864997864 1:-0.00074300001 2:-0.008595 3:0 #
-12251.407951208093436434864997864 1:0.001037 2:-0.0099919997 3:0 #
-12251.407951208093436434864997864 1:-0.0048489999 2:0.001673 3:0 #
-12251.407951208093436434864997864 1:-0.006813 2:-0.002351 3:0.014284 #
-12251.407951208093436434864997864 1:0.0010470001 2:-0.0099919997 3:1.7e-05 #
-12251.407951208093436434864997864 1:0.001027 2:-0.0099919997 3:0 #
-12251.407951208093436434864997864 1:-0.0067179999 2:-0.002476 3:0.01273 #
-12251.407951208093436434864997864 1:-0.006813 2:0.0057660001 3:0.0032820001 #
-12251.407951208093436434864997864 1:0.003492 2:-0.0065819998 3:0 #
-12251.407951208093436434864997864 1:-0.006813 2:-0.0026189999 3:0.01293 #
-12251.407951208093436434864997864 1:-0.006813 2:0.0055049998 3:0 #
-12251.407951208093436434864997864 1:0.001404 2:-0.0099919997 3:0.00096700003 #
-12251.407951208093436434864997864 1:0.001027 2:-0.0099919997 3:0 #
-12251.407951208093436434864997864 1:0.001023 2:-0.0099919997 3:0 #
-12251.407951208093436434864997864 1:-0.006813 2:-0.00238 3:0.012802 #
-12251.407951208093436434864997864 1:0.001147 2:-0.0099919997 3:0.00026199999 #
-12251.407951208093436434864997864 1:-0.00081200001 2:-0.0081190001 3:3.1e-05 #
-12251.407951208093436434864997864 1:0.0010169999 2:-0.0099919997 3:0 #
1047762.5095272600883617997169495 1:-0.00048300001 2:-0.001529 3:0.013597 #
-147016.89541449712123721837997437 1:0.003544 2:-0.0099919997 3:0.013659 #
-12251.407951208093436434864997864 1:-0.006813 2:0.0054020002 3:0 #
-12251.407951208093436434864997864 1:-0.006813 2:0.0048659998 3:0 #
-12251.407951208093436434864997864 1:-0.0055379998 2:-0.0099919997 3:0.012906 #
-12251.407951208093436434864997864 1:-0.006813 2:-0.001882 3:0.012452 #
-12251.407951208093436434864997864 1:-0.006813 2:-0.001839 3:0.012402 #
-12251.407951208093436434864997864 1:-0.00088499999 2:-0.0083410004 3:0 #
-12251.407951208093436434864997864 1:-0.006813 2:-0.001318 3:0.011766 #
-12251.407951208093436434864997864 1:-0.006813 2:-0.001135 3:0.011519 #
-12251.407951208093436434864997864 1:-0.000895 2:-0.008262 3:0 #
-12251.407951208093436434864997864 1:-0.001553 2:-0.0069300001 3:0.001428 #
-147016.89541449712123721837997437 1:-0.006813 2:0.0058329999 3:0.011486 #
-12251.407951208093436434864997864 1:0.0022239999 2:-0.0099919997 3:0.0044849999 #
-12251.407951208093436434864997864 1:0.001008 2:-0.0099919997 3:0 #
-12251.407951208093436434864997864 1:-0.006813 2:-0.0014449999 3:0.011731 #
-12251.407951208093436434864997864 1:-0.0011 2:-0.0067759999 3:0 #
-12251.407951208093436434864997864 1:-0.006813 2:-0.0023169999 3:0.013199 #
-12251.407951208093436434864997864 1:0.001057 2:-0.0099919997 3:7.1000002e-05 #
-147016.89541449712123721837997437 1:-0.000401 2:0.0065049999 3:0.00085900002 #
-12251.407951208093436434864997864 1:0.0010319999 2:-0.0099919997 3:2.8e-05 #
-12251.407951208093436434864997864 1:-0.00055499998 2:-0.0083259996 3:0 #
-147016.89541449712123721837997437 1:-0.002451 2:0.005961 3:0.014053 #
-12251.407951208093436434864997864 1:0.001003 2:-0.0099919997 3:0 #
-12251.407951208093436434864997864 1:0.00099900004 2:-0.0099919997 3:0 #
-12251.407951208093436434864997864 1:0.00099800003 2:-0.0099919997 3:0 #
-12251.407951208093436434864997864 1:0.00097400002 2:-0.0099919997 3:0 #
-12251.407951208093436434864997864 1:0.00096400001 2:-0.0099919997 3:0 #
-12251.407951208093436434864997864 1:0.00094400003 2:-0.0099919997 3:0 #
-12251.407951208093436434864997864 1:0.000932 2:-0.0099919997 3:0 #
-12251.407951208093436434864997864 1:-0.00082000002 2:0.0058010002 3:0 #
-12251.407951208093436434864997864 1:0.000917 2:-0.0099919997 3:0 #
-12251.407951208093436434864997864 1:-0.000657 2:-0.0099919997 3:0.000117 #
-12251.407951208093436434864997864 1:0.00089700002 2:-0.0099919997 3:0 #
-12251.407951208093436434864997864 1:0.00086600002 2:-0.0099919997 3:0 #
-12251.407951208093436434864997864 1:0.000864 2:-0.0099919997 3:0 #
-12251.407951208093436434864997864 1:0.00085200003 2:-0.0099919997 3:0 #
-12251.407951208093436434864997864 1:0.00092299999 2:-0.0099919997 3:3.9999999e-05 #
-12251.407951208093436434864997864 1:0.000848 2:-0.0099919997 3:0 #
-12251.407951208093436434864997864 1:0.00087599998 2:-0.0099919997 3:1.8999999e-05 #
-12251.407951208093436434864997864 1:0.000841 2:-0.0099919997 3:0 #
-147016.89541449712123721837997437 1:0.00021 2:0.0058479998 3:0.011911 #
-12251.407951208093436434864997864 1:-0.00097499997 2:-0.0079229996 3:0.000201 #
-12251.407951208093436434864997864 1:-0.006813 2:-0.00171 3:0.011771 #
-12251.407951208093436434864997864 1:-0.006813 2:-0.001565 3:0.01156 #
-12251.407951208093436434864997864 1:-0.001213 2:-0.006387 3:0 #
-12251.407951208093436434864997864 1:-0.0040290002 2:-0.0099919997 3:0.014209 #
-12251.407951208093436434864997864 1:0.00083199999 2:-0.0099919997 3:0 #
-12251.407951208093436434864997864 1:0.00082999998 2:-0.0099919997 3:0 #
-12251.407951208093436434864997864 1:-0.0021329999 2:-0.0058920002 3:0.0022809999 #
-12251.407951208093436434864997864 1:-0.002176 2:-0.0046819998 3:0.001244 #
-147016.89541449712123721837997437 1:0.003212 2:0.003883 3:0.012607 #
-12251.407951208093436434864997864 1:-0.002537 2:-0.006232 3:0.003578 #
-12251.407951208093436434864997864 1:0.00082700001 2:-0.0099919997 3:0 #
-12251.407951208093436434864997864 1:0.00082100002 2:-0.0099919997 3:0 #
-12251.407951208093436434864997864 1:0.00082100002 2:-0.0099919997 3:0 #
-12251.407951208093436434864997864 1:0.00081699999 2:-0.0099919997 3:0 #
-12251.407951208093436434864997864 1:0.00092399999 2:-0.0099919997 3:6.7000001e-05 #
-12251.407951208093436434864997864 1:0.00079100003 2:-0.0099919997 3:0 #
-12251.407951208093436434864997864 1:-0.0024659999 2:-0.005045 3:0.001987 #
-12251.407951208093436434864997864 1:-0.002756 2:-0.0054080002 3:0.0039909999 #
-12251.407951208093436434864997864 1:-0.002999 2:-0.006176 3:0.004621 #
-12251.407951208093436434864997864 1:-0.004102 2:0.0049680001 3:0 #
-147016.89541449712123721837997437 1:0.0024560001 2:0.0035959999 3:0.014093 #
-12251.407951208093436434864997864 1:-0.0041339998 2:-0.0042889998 3:0.0062159998 #
-12251.407951208093436434864997864 1:0.00078900001 2:-0.0099919997 3:0 #
-12251.407951208093436434864997864 1:0.00076999998 2:-0.0099919997 3:0 #
-12251.407951208093436434864997864 1:0.000757 2:-0.0099919997 3:0 #
-12251.407951208093436434864997864 1:0.001004 2:-0.0099919997 3:0.000142 #
-12251.407951208093436434864997864 1:-0.006813 2:-0.00199 3:0.011528 #
-147016.89541449712123721837997437 1:0.0027300001 2:0.002509 3:0 #
-12251.407951208093436434864997864 1:-0.0055459999 2:-0.002389 3:0.0088060005 #
-12251.407951208093436434864997864 1:0.001079 2:-0.0099919997 3:0.00021699999 #
-12251.407951208093436434864997864 1:-0.003584 2:-0.0051779998 3:0.0043720002 #
-12251.407951208093436434864997864 1:-0.006813 2:-0.0024270001 3:0.014267 #
-12251.407951208093436434864997864 1:-0.006813 2:-0.0029219999 3:0.013018 #
-12251.407951208093436434864997864 1:0.002601 2:-0.0099919997 3:0.0071459999 #
-12251.407951208093436434864997864 1:-0.006813 2:-0.0031640001 3:0.013098 #
-12251.407951208093436434864997864 1:0.00099299999 2:-0.0099919997 3:0.000158 #
-12251.407951208093436434864997864 1:-0.006813 2:-0.0030690001 3:0.013044 #
-12251.407951208093436434864997864 1:-0.006813 2:-0.0020369999 3:0.012147 #
-12251.407951208093436434864997864 1:-0.001235 2:-0.0069889999 3:1.5e-05 #
-12251.407951208093436434864997864 1:0.000749 2:-0.0099919997 3:0 #
-12251.407951208093436434864997864 1:0.00074699998 2:-0.0099919997 3:0 #
-12251.407951208093436434864997864 1:-0.006813 2:-0.0031290001 3:0.013019 #
-12251.407951208093436434864997864 1:-0.001387 2:-0.0059199999 3:0 #
-12251.407951208093436434864997864 1:0.00073999999 2:-0.0099919997 3:0 #
-12251.407951208093436434864997864 1:0.000711 2:-0.0099919997 3:0 #
-12251.407951208093436434864997864 1:0.00070799998 2:-0.0099919997 3:0 #
-12251.407951208093436434864997864 1:0.00081499998 2:-0.0099919997 3:6.0999999e-05 #
-12251.407951208093436434864997864 1:-0.001755 2:-0.0076000001 3:0.0019759999 #
-147016.89541449712123721837997437 1:-0.000795 2:0.0056759999 3:0.013129 #
-12251.407951208093436434864997864 1:-0.001252 2:-0.0069570001 3:0 #
-12251.407951208093436434864997864 1:-0.0056380001 2:0.003918 3:0 #
1047762.5095272600883617997169495 1:-0.006813 2:0.0053119999 3:0.011989 #
1047762.5095272600883617997169495 1:-0.006813 2:-0.00101 3:0 #
-12251.407951208093436434864997864 1:-0.006813 2:-0.001241 3:0.013935 #
-12251.407951208093436434864997864 1:0.00068900001 2:-0.0099919997 3:0 #
-12251.407951208093436434864997864 1:-0.001321 2:-0.0068109999 3:6.0000002e-06 #
-12251.407951208093436434864997864 1:0.00084200001 2:-0.0099919997 3:9.8999997e-05 #
-12251.407951208093436434864997864 1:-0.006813 2:-0.0025140001 3:0.012523 #
-12251.407951208093436434864997864 1:-0.006813 2:0.0045960001 3:0.001517 #
-12251.407951208093436434864997864 1:0.00073600002 2:-0.0099919997 3:1.9999999e-05 #
-12251.407951208093436434864997864 1:-0.006813 2:-0.003022 3:0.012788 #
-12251.407951208093436434864997864 1:-0.006813 2:-0.002811 3:0.012691 #
-12251.407951208093436434864997864 1:-0.001346 2:-0.006697 3:0 #
-12251.407951208093436434864997864 1:0.000681 2:-0.0099919997 3:0 #
-12251.407951208093436434864997864 1:0.000673 2:-0.0099919997 3:0 #
-12251.407951208093436434864997864 1:0.00066899997 2:-0.0099919997 3:0 #
-12251.407951208093436434864997864 1:0.00065200002 2:-0.0099919997 3:0 #
-12251.407951208093436434864997864 1:-0.006813 2:-0.002691 3:0.012623 #
-12251.407951208093436434864997864 1:-0.001554 2:-0.0077229999 3:0.001432 #
-12251.407951208093436434864997864 1:-0.003174 2:-0.0074180001 3:0.0050340001 #
-12251.407951208093436434864997864 1:-0.006813 2:-0.0042440002 3:0.013347 #
-12251.407951208093436434864997864 1:-0.00483 2:-0.0048870002 3:0.0079939999 #
-12251.407951208093436434864997864 1:-0.001496 2:-0.0072770002 3:0.00090799999 #
-12251.407951208093436434864997864 1:-0.0021190001 2:-0.0047289999 3:0.00059000001 #
-12251.407951208093436434864997864 1:-0.0017190001 2:-0.0053679999 3:0 #
-12251.407951208093436434864997864 1:-0.006813 2:-0.0043299999 3:0.01332 #
-12251.407951208093436434864997864 1:-0.006813 2:-0.0046390002 3:0.013314 #
-12251.407951208093436434864997864 1:-0.006813 2:0.0054950002 3:0.0073930002 #
-147016.89541449712123721837997437 1:0.002812 2:0.0043190001 3:0.011649 #
-12251.407951208093436434864997864 1:-0.0061699999 2:-0.002627 3:0.01092 #
-12251.407951208093436434864997864 1:-0.001958 2:-0.0051620002 3:0.00046800001 #
-12251.407951208093436434864997864 1:-0.006813 2:-0.0033 3:0.012856 #
-12251.407951208093436434864997864 1:-0.006813 2:-0.0033140001 3:0.012811 #
-12251.407951208093436434864997864 1:-0.00094599999 2:-0.0087400004 3:0 #
-12251.407951208093436434864997864 1:0.003818 2:-0.000401 3:0 #
1047762.5095272600883617997169495 1:-0.006813 2:-0.00090500002 3:0.014284 #
-12251.407951208093436434864997864 1:-0.0036830001 2:-0.0099919997 3:0.014284 #
1047762.5095272600883617997169495 1:-0.0027139999 2:-0.0099919997 3:0.0031399999 #
-12251.407951208093436434864997864 1:-0.001404 2:-0.0099919997 3:0.002199 #
-12251.407951208093436434864997864 1:0.00064500002 2:-0.0099919997 3:0 #
-12251.407951208093436434864997864 1:0.00064500002 2:-0.0099919997 3:0 #
-12251.407951208093436434864997864 1:0.00064300001 2:-0.0099919997 3:0 #
-12251.407951208093436434864997864 1:-0.006813 2:-0.0024969999 3:0.012401 #
-12251.407951208093436434864997864 1:0.00061799999 2:-0.0099919997 3:0 #
-12251.407951208093436434864997864 1:0.001259 2:-0.0099919997 3:0.00077500002 #
1047762.5095272600883617997169495 1:-0.00031599999 2:0.0022420001 3:0.01005 #
-12251.407951208093436434864997864 1:0.00071599998 2:-0.0099919997 3:3.5000001e-05 #
-12251.407951208093436434864997864 1:0.00060999999 2:-0.0099919997 3:0 #
-12251.407951208093436434864997864 1:-0.006813 2:-0.004464 3:0.013203 #
-12251.407951208093436434864997864 1:0.00058499997 2:-0.0099919997 3:0 #
-12251.407951208093436434864997864 1:0.00070199999 2:-0.0099919997 3:3.8999999e-05 #
-12251.407951208093436434864997864 1:0.00057999999 2:-0.0099919997 3:0 #
-12251.407951208093436434864997864 1:-0.00063999998 2:-0.0081179999 3:0 #
-12251.407951208093436434864997864 1:0.00057799998 2:-0.0099919997 3:0 #
-12251.407951208093436434864997864 1:0.00057799998 2:-0.0099919997 3:0 #
-12251.407951208093436434864997864 1:-0.006813 2:-0.001197 3:0.013835 #
-12251.407951208093436434864997864 1:-0.0015210001 2:-0.0099919997 3:0.0019799999 #
-12251.407951208093436434864997864 1:0.00083199999 2:-0.0099919997 3:0.00012500001 #
-12251.407951208093436434864997864 1:-0.0017049999 2:-0.0054879999 3:0 #
1047762.5095272600883617997169495 1:-0.0056810002 2:-0.0030139999 3:0.000126 #
-12251.407951208093436434864997864 1:-0.0019789999 2:-0.0046029999 3:2.8e-05 #
-12251.407951208093436434864997864 1:0.00080400001 2:-0.0099919997 3:9.8999997e-05 #
-12251.407951208093436434864997864 1:0.00057700003 2:-0.0099919997 3:0 #
-12251.407951208093436434864997864 1:-0.006813 2:-0.0046799998 3:0.013275 #
-12251.407951208093436434864997864 1:0.000566 2:-0.0099919997 3:0 #
-12251.407951208093436434864997864 1:0.000581 2:-0.0099919997 3:4e-06 #
-12251.407951208093436434864997864 1:0.000566 2:-0.0099919997 3:0 #
-12251.407951208093436434864997864 1:0.00056000001 2:-0.0099919997 3:0 #
-12251.407951208093436434864997864 1:0.00055599998 2:-0.0099919997 3:0 #
-12251.407951208093436434864997864 1:0.00053999998 2:-0.0099919997 3:0 #
-12251.407951208093436434864997864 1:0.000535 2:-0.0099919997 3:0 #
-12251.407951208093436434864997864 1:0.0011540001 2:-0.0099919997 3:0.00061799999 #
-12251.407951208093436434864997864 1:-0.006813 2:-0.002441 3:0.012353 #
-12251.407951208093436434864997864 1:0.000719 2:-0.0099919997 3:6.1999999e-05 #
-12251.407951208093436434864997864 1:0.00088200002 2:-0.0099919997 3:0.000287 #
-12251.407951208093436434864997864 1:-0.006813 2:0.0052459999 3:0.0088149998 #
-12251.407951208093436434864997864 1:-0.003736 2:-0.0046959999 3:0.00447 #
-147016.89541449712123721837997437 1:0.002685 2:0.0034950001 3:0.013857 #
1047762.5095272600883617997169495 1:-0.006813 2:-0.002781 3:0.00085100002 #
-12251.407951208093436434864997864 1:-0.001592 2:-0.005663 3:0 #
-12251.407951208093436434864997864 1:0.00053000002 2:-0.0099919997 3:0 #
-12251.407951208093436434864997864 1:-0.006813 2:-0.000119 3:0.0095570004 #
-12251.407951208093436434864997864 1:0.000528 2:-0.0099919997 3:0 #
-12251.407951208093436434864997864 1:0.00052499998 2:-0.0099919997 3:0 #
-12251.407951208093436434864997864 1:0.00052499998 2:-0.0099919997 3:0 #
-12251.407951208093436434864997864 1:-0.0023030001 2:-0.0044109998 3:0.00078900001 #
-12251.407951208093436434864997864 1:0.00052300002 2:-0.0099919997 3:0 #
-12251.407951208093436434864997864 1:0.00050600001 2:-0.0099919997 3:0 #
-12251.407951208093436434864997864 1:-0.001387 2:-0.007218 3:0.00042900001 #
-12251.407951208093436434864997864 1:-0.0019490001 2:-0.004921 3:0 #
-12251.407951208093436434864997864 1:0.00049900002 2:-0.0099919997 3:0 #
-12251.407951208093436434864997864 1:-0.0034709999 2:-0.0038040001 3:0.002205 #
-12251.407951208093436434864997864 1:0.00083899999 2:-0.0099919997 3:0.00029 #
-12251.407951208093436434864997864 1:0.0011239999 2:-0.0099919997 3:0.000772 #
-12251.407951208093436434864997864 1:0.00049200002 2:-0.0099919997 3:0 #
-12251.407951208093436434864997864 1:0.001049 2:-0.0099919997 3:0.00064899999 #
-12251.407951208093436434864997864 1:0.00048799999 2:-0.0099919997 3:0 #
-12251.407951208093436434864997864 1:0.0013839999 2:-0.0099919997 3:0.0013229999 #
-12251.407951208093436434864997864 1:-0.006813 2:-0.002352 3:0.012194 #
-12251.407951208093436434864997864 1:0.0034980001 2:-0.001367 3:0 #
-147016.89541449712123721837997437 1:-0.006813 2:0.0050829998 3:0.014284 #
-147016.89541449712123721837997437 1:0.002902 2:0.0028599999 3:0.013944 #
-12251.407951208093436434864997864 1:-0.006813 2:-0.00094300002 3:0.013562 #
-12251.407951208093436434864997864 1:0.00049599999 2:-0.0099919997 3:4.9999999e-06 #
-12251.407951208093436434864997864 1:-0.006813 2:-0.004863 3:0.013311 #
-12251.407951208093436434864997864 1:-0.00642 2:-0.00072000001 3:0.0073350002 #
-12251.407951208093436434864997864 1:0.0029549999 2:0.00066100003 3:0 #
-12251.407951208093436434864997864 1:-0.001538 2:-0.0059480001 3:0 #
-12251.407951208093436434864997864 1:0.000485 2:-0.0099919997 3:0 #
-147016.89541449712123721837997437 1:-0.001187 2:0.004764 3:0.014176 #
-12251.407951208093436434864997864 1:0.00048399999 2:-0.0099919997 3:0 #
-147016.89541449712123721837997437 1:0.00095399999 2:0.004315 3:0.013996 #
-12251.407951208093436434864997864 1:-0.001609 2:-0.006203 3:0 #
-12251.407951208093436434864997864 1:0.00048399999 2:-0.0099919997 3:0 #
-12251.407951208093436434864997864 1:0.00072000001 2:-0.0099919997 3:0.000214 #
-12251.407951208093436434864997864 1:-0.001911 2:-0.0064980001 3:0.001324 #
-147016.89541449712123721837997437 1:-0.006813 2:0.0054299999 3:0.010002 #
-12251.407951208093436434864997864 1:0.00047999999 2:-0.0099919997 3:0 #
-12251.407951208093436434864997864 1:-0.001913 2:-0.0050519998 3:0 #
-12251.407951208093436434864997864 1:0.00047900001 2:-0.0099919997 3:0 #
-12251.407951208093436434864997864 1:0.00073099998 2:-0.0099919997 3:0.00023400001 #
-12251.407951208093436434864997864 1:-0.001788 2:-0.0055180001 3:6.4e-05 #
-12251.407951208093436434864997864 1:-0.0054299999 2:-0.002299 3:0.0082149999 #
-12251.407951208093436434864997864 1:0.000478 2:-0.0099919997 3:0 #
-12251.407951208093436434864997864 1:-0.0055479999 2:-0.0062989998 3:0.010109 #
-12251.407951208093436434864997864 1:-0.005899 2:-0.0021589999 3:0.0096669998 #
-12251.407951208093436434864997864 1:0.000462 2:-0.0099919997 3:0 #
-12251.407951208093436434864997864 1:-0.0054879999 2:-0.001588 3:0.0074390001 #
-12251.407951208093436434864997864 1:-0.006813 2:-0.0042409999 3:0.013075 #
-12251.407951208093436434864997864 1:0.00045799999 2:-0.0099919997 3:0 #
-12251.407951208093436434864997864 1:-0.005227 2:-0.0032879999 3:0.007485 #
-12251.407951208093436434864997864 1:-0.0019039999 2:-0.0051000002 3:0 #
-12251.407951208093436434864997864 1:0.0028019999 2:0.00044 3:0 #
-12251.407951208093436434864997864 1:0.000673 2:-0.0099919997 3:0.000202 #
-12251.407951208093436434864997864 1:-0.006813 2:-0.001745 3:0.011708 #
-12251.407951208093436434864997864 1:0.00043700001 2:-0.0099919997 3:0 #
-12251.407951208093436434864997864 1:0.00043300001 2:-0.0099919997 3:0 #
-12251.407951208093436434864997864 1:-0.0067480002 2:-0.0043350002 3:0.012865 #
-12251.407951208093436434864997864 1:0.00042500001 2:-0.0099919997 3:0 #
-12251.407951208093436434864997864 1:0.00042500001 2:-0.0099919997 3:0 #
-12251.407951208093436434864997864 1:-0.001677 2:-0.0060279998 3:4.5000001e-05 #
-12251.407951208093436434864997864 1:0.00041499999 2:-0.0099919997 3:0 #
-12251.407951208093436434864997864 1:0.00040700001 2:-0.0099919997 3:0 #
-12251.407951208093436434864997864 1:-0.006813 2:-0.0032230001 3:0.01267 #
-12251.407951208093436434864997864 1:0.00040200001 2:-0.0099919997 3:0 #
-12251.407951208093436434864997864 1:0.000443 2:-0.0099919997 3:2.2e-05 #
-12251.407951208093436434864997864 1:-0.0055 2:-0.002597 3:0.0082550002 #
-147016.89541449712123721837997437 1:0.000719 2:0.0056059998 3:0.0094750002 #
-12251.407951208093436434864997864 1:-0.0064750002 2:-0.001089 3:0.010063 #
-12251.407951208093436434864997864 1:-0.0038719999 2:0.000128 3:0 #
-12251.407951208093436434864997864 1:0.000398 2:-0.0099919997 3:0 #
-12251.407951208093436434864997864 1:-0.006813 2:-0.003062 3:0.012593 #
-147016.89541449712123721837997437 1:-0.00102 2:0.0061769998 3:0.0047530001 #
-12251.407951208093436434864997864 1:0.00046800001 2:-0.0099919997 3:3.9999999e-05 #
-12251.407951208093436434864997864 1:-0.00070899999 2:-0.0099919997 3:2.1e-05 #
-12251.407951208093436434864997864 1:-0.001484 2:-0.0099919997 3:0.0045710001 #
-147016.89541449712123721837997437 1:0.001917 2:0.0040589999 3:0 #
-12251.407951208093436434864997864 1:-0.001496 2:-0.0072849998 3:0.000741 #
-12251.407951208093436434864997864 1:0.00039199999 2:-0.0099919997 3:0 #
-12251.407951208093436434864997864 1:0.00039100001 2:-0.0099919997 3:0 #
-12251.407951208093436434864997864 1:-0.001226 2:-0.0099919997 3:0.0017650001 #
-12251.407951208093436434864997864 1:-0.006813 2:-0.001709 3:0.011678 #
-12251.407951208093436434864997864 1:0.00038700001 2:-0.0099919997 3:0 #
-12251.407951208093436434864997864 1:0.00038099999 2:-0.0099919997 3:0 #
-12251.407951208093436434864997864 1:-0.006813 2:-0.00081699999 3:0.01059 #
-12251.407951208093436434864997864 1:-0.00073799997 2:-0.0099919997 3:0.00012899999 #
-12251.407951208093436434864997864 1:0.00037699999 2:-0.0099919997 3:0 #
-12251.407951208093436434864997864 1:-0.003613 2:-0.00066000002 3:6.4e-05 #
-12251.407951208093436434864997864 1:-0.006813 2:-0.003209 3:0.012647 #
-12251.407951208093436434864997864 1:0.0017810001 2:-0.0099919997 3:0.003028 #
-12251.407951208093436434864997864 1:-0.001362 2:-0.0072369999 3:0 #
-147016.89541449712123721837997437 1:0.002452 2:0.00397 3:0.012059 #
-12251.407951208093436434864997864 1:-0.006813 2:-0.0036309999 3:0.01277 #
-12251.407951208093436434864997864 1:0.000375 2:-0.0099919997 3:0 #
-12251.407951208093436434864997864 1:0.000371 2:-0.0099919997 3:0 #
-12251.407951208093436434864997864 1:-0.0050730002 2:0.001161 3:0 #
-147016.89541449712123721837997437 1:0.0024339999 2:0.004375 3:0.010101 #
-12251.407951208093436434864997864 1:-0.001143 2:-0.006722 3:6.1999999e-05 #
-12251.407951208093436434864997864 1:0.000367 2:-0.0099919997 3:0 #
-12251.407951208093436434864997864 1:0.000367 2:-0.0099919997 3:0 #
-12251.407951208093436434864997864 1:0.00036199999 2:-0.0099919997 3:0 #
-12251.407951208093436434864997864 1:0.000443 2:-0.0099919997 3:3.4000001e-05 #
-12251.407951208093436434864997864 1:0.000466 2:-0.0099919997 3:4.8000002e-05 #
-12251.407951208093436434864997864 1:0.00043799999 2:-0.0099919997 3:4.5000001e-05 #
-12251.407951208093436434864997864 1:0.00053600001 2:-0.0099919997 3:0.000103 #
-12251.407951208093436434864997864 1:0.00035700001 2:-0.0099919997 3:0 #
-12251.407951208093436434864997864 1:0.00035700001 2:-0.0099919997 3:0 #
-12251.407951208093436434864997864 1:0.00035300001 2:-0.0099919997 3:0 #
-147016.89541449712123721837997437 1:0.001534 2:0.0052689998 3:0.00081 #
-12251.407951208093436434864997864 1:-0.0057700002 2:-0.002077 3:0.0094069997 #
-12251.407951208093436434864997864 1:0.00034299999 2:-0.0099919997 3:0 #
-12251.407951208093436434864997864 1:0.0030479999 2:-0.0068390002 3:0 #
1047762.5095272600883617997169495 1:-0.006813 2:0.0011399999 3:0.014284 #
-12251.407951208093436434864997864 1:0.0022090001 2:-0.0099919997 3:0.0064360001 #
-12251.407951208093436434864997864 1:0.00035799999 2:-0.0099919997 3:1.4e-05 #
-12251.407951208093436434864997864 1:0.000325 2:-0.0099919997 3:0 #
-12251.407951208093436434864997864 1:0.000321 2:-0.0099919997 3:0 #
-12251.407951208093436434864997864 1:0.000314 2:-0.0099919997 3:0 #
-12251.407951208093436434864997864 1:0.00053299998 2:-0.0099919997 3:0.000176 #
-12251.407951208093436434864997864 1:0.00031999999 2:-0.0099919997 3:2e-06 #
-12251.407951208093436434864997864 1:0.00031 2:-0.0099919997 3:0 #
-12251.407951208093436434864997864 1:0.00037600001 2:-0.0099919997 3:4.2e-05 #
-12251.407951208093436434864997864 1:0.00033000001 2:-0.0099919997 3:7.0000001e-06 #
-12251.407951208093436434864997864 1:0.000306 2:-0.0099919997 3:0 #
-12251.407951208093436434864997864 1:0.00030300001 2:-0.0099919997 3:0 #
14465.181072331624818616546690464 1:-3.4000001e-05 2:-0.00040799999 3:0.014274 #
-12251.407951208093436434864997864 1:0.001832 2:-0.008804 3:0 #
-12251.407951208093436434864997864 1:0.00038700001 2:-0.0099919997 3:7.1000002e-05 #
-12251.407951208093436434864997864 1:-0.006813 2:-0.002145 3:0.011941 #
-12251.407951208093436434864997864 1:0.00029600001 2:-0.0099919997 3:0 #
-12251.407951208093436434864997864 1:0.00029600001 2:-0.0099919997 3:0 #
-12251.407951208093436434864997864 1:0.000294 2:-0.0099919997 3:0 #
-12251.407951208093436434864997864 1:0.000317 2:-0.0099919997 3:1.4e-05 #
-12251.407951208093436434864997864 1:0.00029 2:-0.0099919997 3:0 #
-12251.407951208093436434864997864 1:0.00028499999 2:-0.0099919997 3:0 #
-12251.407951208093436434864997864 1:0.00030499999 2:-0.0099919997 3:9.0000003e-06 #
-12251.407951208093436434864997864 1:0.00027300001 2:-0.0099919997 3:0 #
-12251.407951208093436434864997864 1:0.00034999999 2:-0.0099919997 3:5.4e-05 #
1047762.5095272600883617997169495 1:-0.001661 2:-0.0099919997 3:0.0052660001 #
-12251.407951208093436434864997864 1:0.00027300001 2:-0.0099919997 3:0 #
1047762.5095272600883617997169495 1:-0.00087699998 2:-0.0099919997 3:0.0032019999 #
-12251.407951208093436434864997864 1:0.000268 2:-0.0099919997 3:0 #
-12251.407951208093436434864997864 1:0.000264 2:-0.0099919997 3:0 #
-12251.407951208093436434864997864 1:0.00026299999 2:-0.0099919997 3:0 #
-12251.407951208093436434864997864 1:0.00026199999 2:-0.0099919997 3:0 #
-12251.407951208093436434864997864 1:-0.001558 2:-0.0072320001 3:0.00070199999 #
-12251.407951208093436434864997864 1:0.001876 2:-0.0099919997 3:0.0068290001 #
-12251.407951208093436434864997864 1:-0.001672 2:-0.0063749999 3:0 #
-12251.407951208093436434864997864 1:-0.006813 2:-0.0045070001 3:0.013045 #
1047762.5095272600883617997169495 1:-0.006813 2:0.0051040002 3:0.0082280003 #
-12251.407951208093436434864997864 1:0.001787 2:-0.0099919997 3:0.0066189999 #
-12251.407951208093436434864997864 1:0.001681 2:-0.0099919997 3:0.0079709999 #
-147016.89541449712123721837997437 1:0.001831 2:0.0041669998 3:0 #
-12251.407951208093436434864997864 1:-0.001739 2:-0.006242 3:4.2e-05 #
-147016.89541449712123721837997437 1:0.0027109999 2:-0.001052 3:0.014284 #
-12251.407951208093436434864997864 1:-0.0064110002 2:-0.00071599998 3:0.0082790004 #
-12251.407951208093436434864997864 1:0.0015050001 2:-0.0099919997 3:0.0055820001 #
-12251.407951208093436434864997864 1:0.00061699998 2:-0.0099919997 3:0.000332 #
-12251.407951208093436434864997864 1:-0.006813 2:-0.00284 3:0.012389 #
-12251.407951208093436434864997864 1:-0.0063319998 2:-0.00092700002 3:0.0094280001 #
-12251.407951208093436434864997864 1:0.00129 2:-0.0099919997 3:0.0086230002 #
-12251.407951208093436434864997864 1:0.00043700001 2:-0.0099919997 3:0.000137 #
-12251.407951208093436434864997864 1:0.00026100001 2:-0.0099919997 3:0 #
-12251.407951208093436434864997864 1:0.00026 2:-0.0099919997 3:0 #
-12251.407951208093436434864997864 1:0.00025400001 2:-0.0099919997 3:0 #
-12251.407951208093436434864997864 1:0.000252 2:-0.0099919997 3:0 #
-12251.407951208093436434864997864 1:0.000248 2:-0.0099919997 3:0 #
-12251.407951208093436434864997864 1:0.00024600001 2:-0.0099919997 3:0 #
-12251.407951208093436434864997864 1:-0.0021500001 2:-0.0048750001 3:0.000149 #
-12251.407951208093436434864997864 1:0.001428 2:-0.0099919997 3:0.0082980003 #
-12251.407951208093436434864997864 1:0.000243 2:-0.0099919997 3:0 #
-12251.407951208093436434864997864 1:0.00023799999 2:-0.0099919997 3:0 #
-12251.407951208093436434864997864 1:0.00023799999 2:-0.0099919997 3:0 #
-12251.407951208093436434864997864 1:0.00023600001 2:-0.0099919997 3:0 #
-12251.407951208093436434864997864 1:0.000231 2:-0.0099919997 3:0 #
-12251.407951208093436434864997864 1:0.00021699999 2:-0.0099919997 3:0 #
-12251.407951208093436434864997864 1:-0.00192 2:-0.006945 3:0.00144 #
-12251.407951208093436434864997864 1:-0.0023779999 2:-0.005107 3:3.7000002e-05 #
-12251.407951208093436434864997864 1:-0.0045750001 2:0.001166 3:0 #
-147016.89541449712123721837997437 1:0.00095900003 2:-0.0043100002 3:0.014078 #
-12251.407951208093436434864997864 1:-0.006813 2:-0.001788 3:0.0116 #
-12251.407951208093436434864997864 1:-0.006813 2:-0.0036009999 3:0.012859 #
-12251.407951208093436434864997864 1:0.00021699999 2:-0.0099919997 3:0 #
-12251.407951208093436434864997864 1:0.00023600001 2:-0.0099919997 3:6.0000002e-06 #
-12251.407951208093436434864997864 1:0.00021499999 2:-0.0099919997 3:0 #
-12251.407951208093436434864997864 1:0.000243 2:-0.0099919997 3:1.9999999e-05 #
-12251.407951208093436434864997864 1:0.00037699999 2:-0.0099919997 3:0.00011 #
-12251.407951208093436434864997864 1:0.000204 2:-0.0099919997 3:0 #
-12251.407951208093436434864997864 1:0.00021499999 2:-0.0099919997 3:3.0000001e-06 #
-12251.407951208093436434864997864 1:-0.006813 2:-0.003272 3:0.012588 #
-12251.407951208093436434864997864 1:-0.0053889998 2:-0.002476 3:0.0075520002 #
-12251.407951208093436434864997864 1:-0.006813 2:-0.001876 3:0.010767 #
-12251.407951208093436434864997864 1:0.00142 2:-0.0099919997 3:0.0049919998 #
-12251.407951208093436434864997864 1:0.00062200002 2:-0.0099919997 3:0.00038799999 #
-12251.407951208093436434864997864 1:-0.0061289999 2:-0.00098300003 3:0.007679 #
-12251.407951208093436434864997864 1:-0.0059710001 2:-0.001637 3:0.0093440004 #
-12251.407951208093436434864997864 1:0.000225 2:-0.0099919997 3:1.8000001e-05 #
-12251.407951208093436434864997864 1:0.000186 2:-0.0099919997 3:0 #
-12251.407951208093436434864997864 1:0.000185 2:-0.0099919997 3:0 #
-12251.407951208093436434864997864 1:-0.0062850001 2:-0.0016280001 3:0.0090739997 #
-12251.407951208093436434864997864 1:-0.006813 2:-0.004127 3:0.013071 #
-12251.407951208093436434864997864 1:0.000333 2:-0.0099919997 3:9.1000002e-05 #
-12251.407951208093436434864997864 1:0.000181 2:-0.0099919997 3:0 #
-12251.407951208093436434864997864 1:0.00018 2:-0.0099919997 3:0 #
-12251.407951208093436434864997864 1:-0.006813 2:-0.0022400001 3:0.011343 #
-12251.407951208093436434864997864 1:-0.006813 2:-0.00155 3:0.011325 #
-147016.89541449712123721837997437 1:-0.006813 2:0.0053389999 3:0.013456 #
-12251.407951208093436434864997864 1:0.00029200001 2:-0.0099919997 3:0.0086209998 #
-12251.407951208093436434864997864 1:0.00016900001 2:-0.0099919997 3:0 #
-12251.407951208093436434864997864 1:0.000168 2:-0.0099919997 3:0 #
-12251.407951208093436434864997864 1:0.000166 2:-0.0099919997 3:0 #
-12251.407951208093436434864997864 1:0.001074 2:-0.0099919997 3:0.001128 #
-12251.407951208093436434864997864 1:-0.006813 2:-0.001742 3:0.010909 #
-12251.407951208093436434864997864 1:-0.006813 2:-0.001706 3:0.010707 #
-12251.407951208093436434864997864 1:0.0024240001 2:-0.0081320005 3:0.00083600002 #
-12251.407951208093436434864997864 1:0.001161 2:-0.0099919997 3:0.001993 #
-12251.407951208093436434864997864 1:-0.0064960001 2:-0.00082900003 3:0.0086470004 #
-12251.407951208093436434864997864 1:0.0023749999 2:-0.0080239996 3:0.00088599999 #
-12251.407951208093436434864997864 1:0.000163 2:-0.0099919997 3:0 #
-12251.407951208093436434864997864 1:0.001471 2:-0.0099919997 3:0.007495 #
-12251.407951208093436434864997864 1:-0.0066760001 2:-0.001427 3:0.0098890001 #
-12251.407951208093436434864997864 1:0.00050700002 2:-0.0099919997 3:0.00028199999 #
-12251.407951208093436434864997864 1:0.000161 2:-0.0099919997 3:0 #
-12251.407951208093436434864997864 1:0.000158 2:-0.0099919997 3:0 #
-12251.407951208093436434864997864 1:0.0014590001 2:-0.0099919997 3:0.0078039998 #
-12251.407951208093436434864997864 1:-0.006813 2:-0.001987 3:0.010471 #
-12251.407951208093436434864997864 1:0.0026980001 2:-0.0070890002 3:0 #
1047762.5095272600883617997169495 1:-0.006813 2:0.0043720002 3:0.013812 #
-12251.407951208093436434864997864 1:0.00082999998 2:-0.0099919997 3:0.00086099998 #
-12251.407951208093436434864997864 1:-0.006813 2:-0.001272 3:0.010266 #
-12251.407951208093436434864997864 1:-0.0041760001 2:-0.000237 3:0.001863 #
-12251.407951208093436434864997864 1:0.000157 2:-0.0099919997 3:0 #
-147016.89541449712123721837997437 1:-0.000162 2:0.004642 3:0.013178 #
-12251.407951208093436434864997864 1:0.000157 2:-0.0099919997 3:0 #
-12251.407951208093436434864997864 1:-0.006813 2:-0.00155 3:0.010424 #
-12251.407951208093436434864997864 1:-0.006813 2:-0.001251 3:0.0099480003 #
-12251.407951208093436434864997864 1:-0.006813 2:-0.001268 3:0.01033 #
-12251.407951208093436434864997864 1:-0.006813 2:-0.001698 3:0.010486 #
-12251.407951208093436434864997864 1:-0.006813 2:-0.00091900001 3:0.0097500002 #
-12251.407951208093436434864997864 1:0.000149 2:-0.0099919997 3:0 #
-12251.407951208093436434864997864 1:0.00014600001 2:-0.0099919997 3:0 #
-12251.407951208093436434864997864 1:0.000136 2:-0.0099919997 3:0 #
-12251.407951208093436434864997864 1:0.00013 2:-0.0099919997 3:0 #
-12251.407951208093436434864997864 1:-0.0044510001 2:-0.000788 3:0.0029170001 #
-12251.407951208093436434864997864 1:-0.001525 2:-0.0067440001 3:0 #
-12251.407951208093436434864997864 1:0.001252 2:-0.0099919997 3:0.0024240001 #
-12251.407951208093436434864997864 1:0.000115 2:-0.0099919997 3:0 #
-12251.407951208093436434864997864 1:0.000115 2:-0.0099919997 3:0 #
-12251.407951208093436434864997864 1:0.000112 2:-0.0099919997 3:0 #
-12251.407951208093436434864997864 1:-0.003243 2:-0.001801 3:0 #
-12251.407951208093436434864997864 1:-0.0015670001 2:-0.006693 3:9.5000003e-05 #
-12251.407951208093436434864997864 1:0.00092899997 2:-0.0099919997 3:0.001104 #
-12251.407951208093436434864997864 1:0.00045200001 2:-0.0099919997 3:0.00026 #
-12251.407951208093436434864997864 1:0.000111 2:-0.0099919997 3:0 #
-12251.407951208093436434864997864 1:0.000107 2:-0.0099919997 3:0 #
-12251.407951208093436434864997864 1:-0.00079800002 2:0.0054850001 3:0 #
-12251.407951208093436434864997864 1:0.00097499997 2:-0.0099919997 3:0.0082440004 #
-12251.407951208093436434864997864 1:0.00045799999 2:-0.0099919997 3:0.000279 #
-12251.407951208093436434864997864 1:0.000208 2:-0.0099919997 3:7.0000002e-05 #
-12251.407951208093436434864997864 1:0.000102 2:-0.0099919997 3:0 #
-12251.407951208093436434864997864 1:0.00049100001 2:-0.0099919997 3:0.00036400001 #
-12251.407951208093436434864997864 1:0.000101 2:-0.0099919997 3:0 #
1047762.5095272600883617997169495 1:-0.001335 2:-0.0099919997 3:0.004733 #
-12251.407951208093436434864997864 1:0.001008 2:-0.0099919997 3:0.001494 #
-12251.407951208093436434864997864 1:9.6999996e-05 2:-0.0099919997 3:0 #
-12251.407951208093436434864997864 1:9.5000003e-05 2:-0.0099919997 3:0 #
-12251.407951208093436434864997864 1:9.4000003e-05 2:-0.0099919997 3:0 #
-147016.89541449712123721837997437 1:-0.00034599999 2:0.0040449998 3:0.014165 #
-12251.407951208093436434864997864 1:0.00075900002 2:0.0046299999 3:0 #
-12251.407951208093436434864997864 1:0.001122 2:-0.0099919997 3:0.0074729999 #
-12251.407951208093436434864997864 1:0.00088800001 2:-0.0099919997 3:0.001265 #
-147016.89541449712123721837997437 1:0.0024900001 2:0.00072900002 3:0.014005 #
-12251.407951208093436434864997864 1:-0.0044869999 2:-0.000673 3:0.0027109999 #
-12251.407951208093436434864997864 1:0.0013070001 2:-0.0099919997 3:0.0042920001 #
-147016.89541449712123721837997437 1:-0.0032259999 2:0.0049740002 3:0.013856 #
-12251.407951208093436434864997864 1:0.00066999998 2:-0.0099919997 3:0.00060600002 #
-12251.407951208093436434864997864 1:9.3000002e-05 2:-0.0099919997 3:0 #
-12251.407951208093436434864997864 1:9.3000002e-05 2:-0.0099919997 3:0 #
-12251.407951208093436434864997864 1:9.2000002e-05 2:-0.0099919997 3:0 #
-12251.407951208093436434864997864 1:8.7e-05 2:-0.0099919997 3:0 #
-12251.407951208093436434864997864 1:-0.0054390002 2:0.00126 3:0 #
-12251.407951208093436434864997864 1:0.000635 2:-0.0099919997 3:0.00072499999 #
-12251.407951208093436434864997864 1:0.000314 2:-0.0099919997 3:0.00021899999 #
-12251.407951208093436434864997864 1:7.9999998e-05 2:-0.0099919997 3:0 #
-12251.407951208093436434864997864 1:7.6999997e-05 2:-0.0099919997 3:0 #
-12251.407951208093436434864997864 1:7.4000003e-05 2:-0.0099919997 3:0 #
-12251.407951208093436434864997864 1:-0.006813 2:-0.0017190001 3:0.010497 #
-12251.407951208093436434864997864 1:0.0013520001 2:-0.0099919997 3:0.0069189998 #
-147016.89541449712123721837997437 1:0.00034 2:-0.0027940001 3:0.014262 #
-147016.89541449712123721837997437 1:0.001792 2:-0.0028649999 3:0.014284 #
-12251.407951208093436434864997864 1:-0.0067670001 2:-0.002262 3:0.011363 #
-12251.407951208093436434864997864 1:0.001042 2:-0.0099919997 3:0.0047960002 #
-12251.407951208093436434864997864 1:0.001192 2:-0.0099919997 3:0.0030129999 #
-12251.407951208093436434864997864 1:0.00082100002 2:-0.0099919997 3:0.007307 #
-12251.407951208093436434864997864 1:0.001099 2:-0.0099919997 3:0.00223 #
-12251.407951208093436434864997864 1:0.00026900001 2:-0.0099919997 3:0.000243 #
-12251.407951208093436434864997864 1:7.2000003e-05 2:-0.0099919997 3:0 #
-12251.407951208093436434864997864 1:6.6000001e-05 2:-0.0099919997 3:0 #
-12251.407951208093436434864997864 1:6.5e-05 2:-0.0099919997 3:0 #
-12251.407951208093436434864997864 1:5.9999998e-05 2:-0.0099919997 3:0 #
-12251.407951208093436434864997864 1:5.9000002e-05 2:-0.0099919997 3:0 #
-12251.407951208093436434864997864 1:0.0031260001 2:-0.0023169999 3:0 #
-12251.407951208093436434864997864 1:0.00098400004 2:-0.0099919997 3:0.001606 #
-12251.407951208093436434864997864 1:5.9000002e-05 2:-0.0099919997 3:0 #
-12251.407951208093436434864997864 1:-0.000122 2:-0.0099919997 3:0.0086209998 #
-147016.89541449712123721837997437 1:-0.002386 2:0.0051139998 3:0.012433 #
-12251.407951208093436434864997864 1:0.00064300001 2:-0.0099919997 3:0.00079000002 #
-147016.89541449712123721837997437 1:0.002662 2:0.0036239999 3:0.0088649997 #
-12251.407951208093436434864997864 1:-0.004524 2:-0.00036599999 3:0.0023070001 #
-12251.407951208093436434864997864 1:0.0021289999 2:-0.0082639996 3:4.8999998e-05 #
-147016.89541449712123721837997437 1:-0.001545 2:0.00434 3:0.013933 #
-12251.407951208093436434864997864 1:5.5e-05 2:-0.0099919997 3:0 #
-147016.89541449712123721837997437 1:-0.00058599998 2:0.0041080001 3:0.013573 #
-12251.407951208093436434864997864 1:5.1999999e-05 2:-0.0099919997 3:0 #
-147016.89541449712123721837997437 1:0.001618 2:0.001942 3:0.01414 #
-12251.407951208093436434864997864 1:5.1999999e-05 2:-0.0099919997 3:0 #
-12251.407951208093436434864997864 1:0.000166 2:-0.0099919997 3:0.000134 #
-12251.407951208093436434864997864 1:4.7000001e-05 2:-0.0099919997 3:0 #
-12251.407951208093436434864997864 1:4.7000001e-05 2:-0.0099919997 3:0 #
-12251.407951208093436434864997864 1:4.7000001e-05 2:-0.0099919997 3:0 #
-12251.407951208093436434864997864 1:3.8999999e-05 2:-0.0099919997 3:0 #
-12251.407951208093436434864997864 1:-0.001955 2:-0.0055979998 3:9.7999997e-05 #
-12251.407951208093436434864997864 1:0.001071 2:-0.0099919997 3:0.0027290001 #
-12251.407951208093436434864997864 1:0.00077500002 2:-0.0099919997 3:0.001175 #
-12251.407951208093436434864997864 1:-0.0020270001 2:-0.0056099999 3:0.00042900001 #
-12251.407951208093436434864997864 1:-0.0043819998 2:-0.0021269999 3:0.0045420001 #
-12251.407951208093436434864997864 1:0.0015979999 2:-0.0088740001 3:0.000229 #
-12251.407951208093436434864997864 1:2.4999999e-05 2:-0.0099919997 3:0 #
-12251.407951208093436434864997864 1:2.4999999e-05 2:-0.0099919997 3:0 #
-12251.407951208093436434864997864 1:2.4999999e-05 2:-0.0099919997 3:0 #
-12251.407951208093436434864997864 1:1.8999999e-05 2:-0.0099919997 3:0 #
-12251.407951208093436434864997864 1:1.2e-05 2:-0.0099919997 3:0 #
-12251.407951208093436434864997864 1:8e-06 2:-0.0099919997 3:0 #
-12251.407951208093436434864997864 1:-0.0010010001 2:0.00054899999 3:0.00111 #
-12251.407951208093436434864997864 1:-0.001851 2:0.0053110002 3:0 #
-12251.407951208093436434864997864 1:0.001072 2:-0.0099919997 3:0.0028570001 #
-12251.407951208093436434864997864 1:0.00038700001 2:-0.0099919997 3:0.00042600001 #
-12251.407951208093436434864997864 1:4.9999999e-06 2:-0.0099919997 3:0 #
-12251.407951208093436434864997864 1:2e-06 2:-0.0099919997 3:0 #
-12251.407951208093436434864997864 1:-2e-06 2:-0.0099919997 3:0 #
-12251.407951208093436434864997864 1:-4.9999999e-06 2:-0.0099919997 3:0 #
-12251.407951208093436434864997864 1:-4.9999999e-06 2:-0.0099919997 3:0 #
-12251.407951208093436434864997864 1:-4.9999999e-06 2:-0.0099919997 3:0 #
-12251.407951208093436434864997864 1:-6.0000002e-06 2:-0.0099919997 3:0 #
-12251.407951208093436434864997864 1:-8e-06 2:-0.0099919997 3:0 #
-12251.407951208093436434864997864 1:-1.2e-05 2:-0.0099919997 3:0 #
-12251.407951208093436434864997864 1:-1.3e-05 2:-0.0099919997 3:0 #
-12251.407951208093436434864997864 1:9.9999997e-05 2:-0.0099919997 3:0.000115 #
-12251.407951208093436434864997864 1:-1.8999999e-05 2:-0.0099919997 3:0 #
-12251.407951208093436434864997864 1:0.000486 2:-0.0099919997 3:0.0080300001 #
-12251.407951208093436434864997864 1:-0.006813 2:-0.00095900003 3:0.0099280002 #
-12251.407951208093436434864997864 1:0.00081 2:-0.0099919997 3:0.0070540002 #
-12251.407951208093436434864997864 1:0.00086600002 2:-0.0099919997 3:0.0056360001 #
-12251.407951208093436434864997864 1:0.00089899998 2:-0.0099919997 3:0.0044280002 #
-12251.407951208093436434864997864 1:0.00092600001 2:-0.0099919997 3:0.00404 #
-12251.407951208093436434864997864 1:0.000306 2:-0.0099919997 3:0.007913 #
-147016.89541449712123721837997437 1:-0.0062119998 2:0.0050459998 3:0.014274 #
-12251.407951208093436434864997864 1:0.00095700001 2:-0.0099919997 3:0.002261 #
-12251.407951208093436434864997864 1:0.00079100003 2:-0.0099919997 3:0.00144 #
-12251.407951208093436434864997864 1:0.00076800003 2:-0.0099919997 3:0.001493 #
-12251.407951208093436434864997864 1:-0.003522 2:-0.001718 3:0.00066399999 #
-12251.407951208093436434864997864 1:0.001939 2:-0.008312 3:0.00079999998 #
-12251.407951208093436434864997864 1:0.00041199999 2:-0.0099919997 3:0.00056999997 #
-12251.407951208093436434864997864 1:-0.0037159999 2:-0.001173 3:0.00070600002 #
-12251.407951208093436434864997864 1:0.001813 2:-0.0082860002 3:0.00023799999 #
-12251.407951208093436434864997864 1:-2.4999999e-05 2:-0.0099919997 3:0 #
-12251.407951208093436434864997864 1:0.0013229999 2:0.0041780001 3:0 #
-147016.89541449712123721837997437 1:-0.006813 2:0.00471 3:0.014284 #
-12251.407951208093436434864997864 1:0.000917 2:-0.0099919997 3:0.0022750001 #
-12251.407951208093436434864997864 1:-0.0040350002 2:-0.00066700001 3:0.0011080001 #
-12251.407951208093436434864997864 1:0.00091599999 2:-0.0099919997 3:0.00349 #
-12251.407951208093436434864997864 1:0.00034 2:-0.0099919997 3:0.00045699999 #
-12251.407951208093436434864997864 1:-2.4999999e-05 2:-0.0099919997 3:0 #
-12251.407951208093436434864997864 1:-2.6e-05 2:-0.0099919997 3:0 #
-12251.407951208093436434864997864 1:-2.7e-05 2:-0.0099919997 3:0 #
-12251.407951208093436434864997864 1:-2.8e-05 2:-0.0099919997 3:0 #
-12251.407951208093436434864997864 1:-3.6000001e-05 2:-0.0099919997 3:0 #
-12251.407951208093436434864997864 1:-4.3e-05 2:-0.0099919997 3:0 #
-12251.407951208093436434864997864 1:-4.8999998e-05 2:-0.0099919997 3:0 #
-12251.407951208093436434864997864 1:-6.2999999e-05 2:-0.0099919997 3:0 #
-12251.407951208093436434864997864 1:-6.4e-05 2:-0.0099919997 3:0 #
1047762.5095272600883617997169495 1:0.000504 2:-0.002138 3:0.01397 #
-12251.407951208093436434864997864 1:-0.006813 2:-0.001023 3:0.0098519996 #
-12251.407951208093436434864997864 1:0.00081900001 2:-0.0099919997 3:0.00193 #
-12251.407951208093436434864997864 1:0.00066000002 2:-0.0099919997 3:0.005897 #
-12251.407951208093436434864997864 1:0.00074500003 2:-0.0099919997 3:0.004371 #
-12251.407951208093436434864997864 1:0.002994 2:-0.0016749999 3:0 #
1047762.5095272600883617997169495 1:-0.006813 2:0.0036460001 3:0.01417 #
-12251.407951208093436434864997864 1:-3.0000001e-06 2:-0.0099919997 3:6.1999999e-05 #
-12251.407951208093436434864997864 1:-7.0000002e-05 2:-0.0099919997 3:0 #
-12251.407951208093436434864997864 1:-7.2000003e-05 2:-0.0099919997 3:0 #
-12251.407951208093436434864997864 1:0.00063099997 2:-0.0099919997 3:0.001159 #
-12251.407951208093436434864997864 1:0.000287 2:-0.0099919997 3:0.000374 #
-147016.89541449712123721837997437 1:0.000206 2:0.0038330001 3:0.012622 #
-12251.407951208093436434864997864 1:-7.4000003e-05 2:-0.0099919997 3:0 #
-12251.407951208093436434864997864 1:-7.4000003e-05 2:-0.0099919997 3:0 #
-12251.407951208093436434864997864 1:0.0028359999 2:-0.001732 3:0 #
-12251.407951208093436434864997864 1:0.000374 2:-0.0099919997 3:0.00053999998 #
-12251.407951208093436434864997864 1:-0.0039459998 2:-0.00036100001 3:0 #
-12251.407951208093436434864997864 1:-0.004559 2:-0.000765 3:0.0029269999 #
-12251.407951208093436434864997864 1:0.001851 2:-0.0080519998 3:0 #
-12251.407951208093436434864997864 1:0.00052599999 2:-0.0099919997 3:0.00090099999 #
1047762.5095272600883617997169495 1:-0.00064099999 2:-0.0010629999 3:0.00035300001 #
-12251.407951208093436434864997864 1:-0.0027350001 2:-0.0038370001 3:1.2e-05 #
-12251.407951208093436434864997864 1:-0.006813 2:-0.0024969999 3:0.010425 #
-12251.407951208093436434864997864 1:-0.0048850002 2:-0.00072299998 3:0.003854 #
-12251.407951208093436434864997864 1:-0.006813 2:-0.00080400001 3:0.0096930005 #
-12251.407951208093436434864997864 1:0.00023999999 2:-0.0099919997 3:0.000351 #
-12251.407951208093436434864997864 1:-7.5999997e-05 2:-0.0099919997 3:0 #
-12251.407951208093436434864997864 1:0.000231 2:-0.0099919997 3:0.00034999999 #
-12251.407951208093436434864997864 1:-7.6999997e-05 2:-0.0099919997 3:0 #
-12251.407951208093436434864997864 1:-7.6999997e-05 2:-0.0099919997 3:0 #
-12251.407951208093436434864997864 1:-0.00081599999 2:0.0055430001 3:0.001186 #
-12251.407951208093436434864997864 1:-0.006813 2:-0.00087599998 3:0.0096150003 #
-12251.407951208093436434864997864 1:0.00058499997 2:-0.0099919997 3:0.001071 #
-12251.407951208093436434864997864 1:-8.3999999e-05 2:-0.0099919997 3:0 #
-147016.89541449712123721837997437 1:0.001927 2:0.00388 3:0.00071300002 #
-12251.407951208093436434864997864 1:-0.0053209998 2:-0.002052 3:0.0069909999 #
-12251.407951208093436434864997864 1:-0.006813 2:-0.00070199999 3:0.009478 #
-12251.407951208093436434864997864 1:-8.1999999e-05 2:-0.0099919997 3:4.9999999e-06 #
-147016.89541449712123721837997437 1:-0.003729 2:0.0050329999 3:0.01385 #
-12251.407951208093436434864997864 1:-8.8000001e-05 2:-0.0099919997 3:0 #
-12251.407951208093436434864997864 1:-0.0046660001 2:-0.000489 3:0.0025299999 #
-147016.89541449712123721837997437 1:0.002665 2:0.001084 3:0.013124 #
-12251.407951208093436434864997864 1:-0.0046509998 2:-2.2e-05 3:0.001428 #
-12251.407951208093436434864997864 1:0.001547 2:-0.0086019998 3:9.0000003e-06 #
-12251.407951208093436434864997864 1:0.00050999998 2:-0.0099919997 3:0.000979 #
-12251.407951208093436434864997864 1:0.00038700001 2:-0.0099919997 3:0.000879 #
-12251.407951208093436434864997864 1:-7.2000003e-05 2:-0.0099919997 3:2.4999999e-05 #
-12251.407951208093436434864997864 1:0.000872 2:0.004528 3:0 #
-12251.407951208093436434864997864 1:-0.0024059999 2:-0.0099919997 3:0.0081900004 #
-12251.407951208093436434864997864 1:-9.0000001e-05 2:-0.0099919997 3:0 #
-12251.407951208093436434864997864 1:-0.0055129998 2:-0.0027330001 3:0.0081489999 #
-12251.407951208093436434864997864 1:0.0013520001 2:-0.0088780001 3:0.001362 #
-12251.407951208093436434864997864 1:-0.000268 2:-0.0099919997 3:0.0085730003 #
-12251.407951208093436434864997864 1:-0.0015670001 2:-0.0099919997 3:0.0032269999 #
-12251.407951208093436434864997864 1:0.00034900001 2:-0.0099919997 3:0.00085000001 #
-12251.407951208093436434864997864 1:-0.006025 2:-0.0029869999 3:0.010148 #
1047762.5095272600883617997169495 1:-0.00076800003 2:-0.0099919997 3:0.0053889998 #
-12251.407951208093436434864997864 1:0.000352 2:-0.0099919997 3:0.00089199998 #
-12251.407951208093436434864997864 1:-0.0060200002 2:-0.001703 3:0.0084910002 #
-147016.89541449712123721837997437 1:-0.0062620002 2:0.0055610002 3:0.012874 #
-12251.407951208093436434864997864 1:0.0013530001 2:-0.0087959999 3:7.9999998e-05 #
-147016.89541449712123721837997437 1:-0.0015 2:0.0038109999 3:0.014257 #
-12251.407951208093436434864997864 1:-9.1000002e-05 2:-0.0099919997 3:0 #
-12251.407951208093436434864997864 1:-0.006813 2:-0.00088599999 3:0.0093520004 #
-12251.407951208093436434864997864 1:0.00065200002 2:-0.0099919997 3:0.0021329999 #
-12251.407951208093436434864997864 1:1.7e-05 2:-0.0099919997 3:0.00019399999 #
-12251.407951208093436434864997864 1:-0.0060729999 2:-0.001159 3:0.0083609996 #
-12251.407951208093436434864997864 1:-0.0016749999 2:0.0055829999 3:0.000879 #
-12251.407951208093436434864997864 1:-0.006813 2:-0.00020900001 3:0.008928 #
-12251.407951208093436434864997864 1:-9.4000003e-05 2:-0.0099919997 3:0 #
-12251.407951208093436434864997864 1:-0.006813 2:-0.0021269999 3:0.011073 #
-12251.407951208093436434864997864 1:0.00052100001 2:-0.0099919997 3:0.001535 #
-12251.407951208093436434864997864 1:0.00028499999 2:-0.0099919997 3:0.00086600002 #
1047762.5095272600883617997169495 1:0.002686 2:-0.000451 3:0.0025520001 #
-147016.89541449712123721837997437 1:0.0029829999 2:-0.0045250002 3:0.012859 #
-12251.407951208093436434864997864 1:-0.006813 2:-0.001577 3:0.010203 #
-12251.407951208093436434864997864 1:0.000719 2:-0.0099919997 3:0.0037229999 #
-12251.407951208093436434864997864 1:9.4000003e-05 2:-0.0099919997 3:0.00038400001 #
-12251.407951208093436434864997864 1:0.001096 2:0.0040589999 3:0 #
-147016.89541449712123721837997437 1:6.7000001e-05 2:0.002847 3:0.014244 #
-12251.407951208093436434864997864 1:-0.006813 2:-0.001382 3:0.0099090002 #
-12251.407951208093436434864997864 1:0.00049100001 2:-0.0099919997 3:0.0028049999 #
-12251.407951208093436434864997864 1:0.000231 2:-0.0099919997 3:0.00070799998 #
-12251.407951208093436434864997864 1:-0.005897 2:-6.1999999e-05 3:0.002899 #
-12251.407951208093436434864997864 1:0.00039199999 2:-0.0099919997 3:0.001806 #
-12251.407951208093436434864997864 1:1.2e-05 2:-0.0099919997 3:0.000207 #
-12251.407951208093436434864997864 1:-0.006813 2:-0.0038930001 3:0.012788 #
-12251.407951208093436434864997864 1:0.001334 2:-0.0088060005 3:0.0033829999 #
-12251.407951208093436434864997864 1:-9.5000003e-05 2:-0.0099919997 3:0 #
-12251.407951208093436434864997864 1:0.000228 2:-0.0099919997 3:0.000979 #
-12251.407951208093436434864997864 1:-9.7999997e-05 2:-0.0099919997 3:0 #
-12251.407951208093436434864997864 1:3.5000001e-05 2:-0.0099919997 3:0.0082740001 #
-12251.407951208093436434864997864 1:-0.0067759999 2:-0.0035939999 3:0.012578 #
-12251.407951208093436434864997864 1:-0.0066769999 2:-0.001981 3:0.010522 #
-12251.407951208093436434864997864 1:0.000619 2:-0.0099919997 3:0.0043549999 #
-12251.407951208093436434864997864 1:-7.7999997e-05 2:-0.0099919997 3:3.5000001e-05 #
-12251.407951208093436434864997864 1:1.9999999e-05 2:-0.0099919997 3:0.000272 #
-12251.407951208093436434864997864 1:-9.9999997e-05 2:-0.0099919997 3:0 #
-12251.407951208093436434864997864 1:-0.005682 2:-0.00026500001 3:0.0052649998 #
-12251.407951208093436434864997864 1:0.00033499999 2:-0.0099919997 3:0.0015829999 #
-12251.407951208093436434864997864 1:-0.006813 2:-0.002782 3:0.0085840002 #
-12251.407951208093436434864997864 1:-0.006813 2:-0.00054600002 3:0.0089689996 #
-12251.407951208093436434864997864 1:-9.9999997e-05 2:-0.0099919997 3:0 #
-12251.407951208093436434864997864 1:-0.000101 2:-0.0099919997 3:0 #
-12251.407951208093436434864997864 1:-0.0036230001 2:-0.002719 3:0.0020359999 #
-12251.407951208093436434864997864 1:-0.006813 2:-0.00056999997 3:0.008897 #
-12251.407951208093436434864997864 1:-0.000103 2:-0.0099919997 3:0 #
-12251.407951208093436434864997864 1:-0.006813 2:-0.000344 3:0.0088240001 #
-12251.407951208093436434864997864 1:0.00036400001 2:-0.0099919997 3:0.0020290001 #
-12251.407951208093436434864997864 1:-3.6000001e-05 2:-0.0099919997 3:0.00021100001 #
-12251.407951208093436434864997864 1:-0.0041840002 2:-0.0029259999 3:0.0046919999 #
-12251.407951208093436434864997864 1:0.001314 2:-0.0082489997 3:0 #
-12251.407951208093436434864997864 1:-0.000104 2:-0.0099919997 3:0 #
-12251.407951208093436434864997864 1:-0.004003 2:-0.00092199998 3:0.000765 #
-12251.407951208093436434864997864 1:0.00057199999 2:-0.0099919997 3:0.0046000001 #
-12251.407951208093436434864997864 1:-0.000111 2:-0.0099919997 3:0 #
-12251.407951208093436434864997864 1:-5.0999999e-05 2:-0.0099919997 3:0.00017499999 #
-12251.407951208093436434864997864 1:-0.0052499999 2:-0.003334 3:0.0074490001 #
-12251.407951208093436434864997864 1:0.00043799999 2:-0.0099919997 3:0.003327 #
-12251.407951208093436434864997864 1:-0.000112 2:-0.0099919997 3:0 #
-12251.407951208093436434864997864 1:-0.006813 2:-0.00050299999 3:0.0092890002 #
-12251.407951208093436434864997864 1:0.00031599999 2:-0.0099919997 3:0.002319 #
-12251.407951208093436434864997864 1:-0.000116 2:-0.0099919997 3:0 #
-147016.89541449712123721837997437 1:-0.006813 2:0.003765 3:0.014276 #
-147016.89541449712123721837997437 1:0.0039090002 2:-0.000291 3:0.0060780002 #
-12251.407951208093436434864997864 1:-0.006813 2:-0.000187 3:0.0086639998 #
-12251.407951208093436434864997864 1:-0.000117 2:-0.0099919997 3:0 #
-12251.407951208093436434864997864 1:-0.0053630001 2:-0.00379 3:0.0082909996 #
-12251.407951208093436434864997864 1:0.000227 2:-0.0099919997 3:0.00125 #
-12251.407951208093436434864997864 1:-0.000121 2:-0.0099919997 3:0 #
-147016.89541449712123721837997437 1:-0.006813 2:0.0043310001 3:0.014202 #
-12251.407951208093436434864997864 1:-0.000121 2:-0.0099919997 3:0 #
-147016.89541449712123721837997437 1:-0.006813 2:0.0046160002 3:0.014089 #
-12251.407951208093436434864997864 1:0.00053700001 2:-0.0099919997 3:0.0050659999 #
-12251.407951208093436434864997864 1:-0.005014 2:0.0021780001 3:3.9999999e-05 #
-12251.407951208093436434864997864 1:-9.8999997e-05 2:-0.0099919997 3:4.4e-05 #
-12251.407951208093436434864997864 1:-0.0055459999 2:-0.002781 3:0.0077900002 #
-12251.407951208093436434864997864 1:0.000356 2:-0.0099919997 3:0.0029170001 #
-12251.407951208093436434864997864 1:-0.000124 2:-0.0099919997 3:0 #
-12251.407951208093436434864997864 1:-0.006813 2:-0.0031049999 3:0.01225 #
-12251.407951208093436434864997864 1:0.00035399999 2:-0.0099919997 3:0.002996 #
-12251.407951208093436434864997864 1:-0.00012700001 2:-0.0099919997 3:0 #
-12251.407951208093436434864997864 1:-0.0057999999 2:-0.005816 3:0.010412 #
-12251.407951208093436434864997864 1:0.00035300001 2:-0.0099919997 3:0.0030060001 #
-12251.407951208093436434864997864 1:-0.000128 2:-0.0099919997 3:0 #
-12251.407951208093436434864997864 1:-0.006813 2:-0.002116 3:0.010559 #
-12251.407951208093436434864997864 1:-0.0041840002 2:0.00028400001 3:7.9999998e-05 #
1047762.5095272600883617997169495 1:-0.0067309998 2:-0.0031010001 3:0.013721 #
-12251.407951208093436434864997864 1:-0.004677 2:0.0011840001 3:0.00065200002 #
-12251.407951208093436434864997864 1:5.5e-05 2:-0.0099919997 3:0.00058599998 #
-12251.407951208093436434864997864 1:-0.00012899999 2:-0.0099919997 3:0 #
-12251.407951208093436434864997864 1:-0.00013099999 2:-0.0099919997 3:0 #
-12251.407951208093436434864997864 1:-0.00013499999 2:-0.0099919997 3:0 #
-12251.407951208093436434864997864 1:-0.000137 2:-0.0099919997 3:0 #
-12251.407951208093436434864997864 1:-0.00014 2:-0.0099919997 3:0 #
-12251.407951208093436434864997864 1:-0.000142 2:-0.0099919997 3:0 #
-12251.407951208093436434864997864 1:-0.00014400001 2:-0.0099919997 3:0 #
-12251.407951208093436434864997864 1:-0.000149 2:-0.0099919997 3:1e-06 #
-12251.407951208093436434864997864 1:-0.000159 2:-0.0099919997 3:0 #
-12251.407951208093436434864997864 1:-0.000162 2:-0.0099919997 3:0 #
-12251.407951208093436434864997864 1:-0.000163 2:-0.0099919997 3:0 #
-12251.407951208093436434864997864 1:-0.000164 2:-0.0099919997 3:0 #
-12251.407951208093436434864997864 1:-0.000164 2:-0.0099919997 3:0 #
-12251.407951208093436434864997864 1:0.0025839999 2:-0.00147 3:0 #
-12251.407951208093436434864997864 1:-0.0057239998 2:-0.0034670001 3:0.008684 #
-12251.407951208093436434864997864 1:0.0023739999 2:-0.00648 3:0.003699 #
-147016.89541449712123721837997437 1:-0.003453 2:0.0043779998 3:0.014284 #
-12251.407951208093436434864997864 1:-0.00016700001 2:-0.0099919997 3:0 #
-12251.407951208093436434864997864 1:-0.006813 2:-0.0043270001 3:0.012927 #
-12251.407951208093436434864997864 1:0.00056299998 2:-0.0099919997 3:0.0058010002 #
-12251.407951208093436434864997864 1:-0.00014600001 2:-0.0099919997 3:2.2e-05 #
-12251.407951208093436434864997864 1:-0.0061940001 2:-0.0031870001 3:0.01029 #
-12251.407951208093436434864997864 1:0.00057799998 2:-0.0099919997 3:0.0063590002 #
-12251.407951208093436434864997864 1:-0.000176 2:-0.0099919997 3:0 #
-12251.407951208093436434864997864 1:-0.006813 2:-0.003673 3:0.012671 #
-12251.407951208093436434864997864 1:0.00053199998 2:-0.0099919997 3:0.005692 #
-12251.407951208093436434864997864 1:-0.00013499999 2:-0.0099919997 3:3.5000001e-05 #
-12251.407951208093436434864997864 1:-0.0056779999 2:-0.003482 3:0.0088740001 #
-12251.407951208093436434864997864 1:0.00056999997 2:-0.0099919997 3:0.0063749999 #
-12251.407951208093436434864997864 1:-0.000382 2:-0.0099919997 3:0.0084840003 #
-12251.407951208093436434864997864 1:-0.00017699999 2:-0.0099919997 3:0 #
-12251.407951208093436434864997864 1:-0.000184 2:-0.0099919997 3:0 #
-12251.407951208093436434864997864 1:-0.000186 2:-0.0099919997 3:0 #
-12251.407951208093436434864997864 1:-0.000186 2:-0.0099919997 3:0 #
-12251.407951208093436434864997864 1:-0.000189 2:-0.0099919997 3:0 #
-12251.407951208093436434864997864 1:-0.000197 2:-0.0099919997 3:0 #
-12251.407951208093436434864997864 1:-0.000197 2:-0.0099919997 3:0 #
-12251.407951208093436434864997864 1:-0.0043939999 2:-0.001237 3:0.00026900001 #
-12251.407951208093436434864997864 1:0.001794 2:0.0032200001 3:0 #
-12251.407951208093436434864997864 1:-0.002384 2:-0.0032220001 3:4.7000001e-05 #
-12251.407951208093436434864997864 1:-0.0041439999 2:9.6999996e-05 3:0 #
-147016.89541449712123721837997437 1:-0.0035929999 2:0.0053170002 3:0.010611 #
-12251.407951208093436434864997864 1:-6.8000001e-05 2:-0.0099919997 3:0.000134 #
-12251.407951208093436434864997864 1:-0.006813 2:-0.0042500002 3:0.012902 #
-12251.407951208093436434864997864 1:0.00104 2:-0.0084199999 3:0 #
-147016.89541449712123721837997437 1:-0.00066999998 2:0.003392 3:0.014008 #
-12251.407951208093436434864997864 1:-0.0060700001 2:-0.0035290001 3:0.0097169997 #
-12251.407951208093436434864997864 1:0.000294 2:-0.0099919997 3:0.002328 #
-12251.407951208093436434864997864 1:-2.3000001e-05 2:-0.0099919997 3:0.00031599999 #
-147016.89541449712123721837997437 1:-0.00057700003 2:0.0031010001 3:0.014254 #
-12251.407951208093436434864997864 1:-0.006813 2:-0.0031649999 3:0.012219 #
-12251.407951208093436434864997864 1:0.00024600001 2:-0.0099919997 3:0.001948 #
-12251.407951208093436434864997864 1:0.000132 2:0.0045690001 3:0 #
-12251.407951208093436434864997864 1:-0.0048159999 2:0.001071 3:0.000718 #
-12251.407951208093436434864997864 1:-0.006813 2:-0.0013220001 3:0.010412 #
-12251.407951208093436434864997864 1:-0.000201 2:-0.0099919997 3:0 #
-12251.407951208093436434864997864 1:-0.0061559998 2:-0.0043529999 3:0.010604 #
-12251.407951208093436434864997864 1:0.000108 2:-0.0099919997 3:0.00099600002 #
-12251.407951208093436434864997864 1:-1e-06 2:-0.0099919997 3:0.00044800001 #
-12251.407951208093436434864997864 1:-0.006813 2:-0.0056340001 3:0.013244 #
-12251.407951208093436434864997864 1:-0.0042690001 2:0.000642 3:0 #
-12251.407951208093436434864997864 1:-0.00014800001 2:-0.0099919997 3:6.7000001e-05 #
-12251.407951208093436434864997864 1:-0.006813 2:-0.0036249999 3:0.012583 #
-12251.407951208093436434864997864 1:5.7000001e-05 2:-0.0099919997 3:0.00082700001 #
-12251.407951208093436434864997864 1:-3.2e-05 2:-0.0099919997 3:0.000413 #
-12251.407951208093436434864997864 1:0.002144 2:0.002604 3:0 #
-12251.407951208093436434864997864 1:-0.006238 2:-0.001387 3:0.0078670001 #
-147016.89541449712123721837997437 1:-0.0051520001 2:0.0047909999 3:0.013975 #
-12251.407951208093436434864997864 1:2.4000001e-05 2:-0.0099919997 3:0.00072499999 #
-12251.407951208093436434864997864 1:-0.006813 2:-0.0035689999 3:0.012578 #
-12251.407951208093436434864997864 1:0.000235 2:-0.0099919997 3:0.0022849999 #
-12251.407951208093436434864997864 1:-0.00013 2:-0.0099919997 3:0.000121 #
-12251.407951208093436434864997864 1:-0.006331 2:-0.0044559999 3:0.011532 #
-12251.407951208093436434864997864 1:-0.003889 2:-0.00017299999 3:0 #
-147016.89541449712123721837997437 1:-0.005508 2:0.0045750001 3:0.014176 #
-12251.407951208093436434864997864 1:-0.000203 2:-0.0099919997 3:0 #
-147016.89541449712123721837997437 1:0.00057999999 2:0.0022100001 3:0.014284 #
-12251.407951208093436434864997864 1:-0.006813 2:-0.0035300001 3:0.012505 #
-12251.407951208093436434864997864 1:0.00044800001 2:-0.0099919997 3:0.0051529999 #
-12251.407951208093436434864997864 1:-1.6e-05 2:-0.0099919997 3:0.00066999998 #
-12251.407951208093436434864997864 1:-0.0065259999 2:-0.0047880001 3:0.012151 #
-147016.89541449712123721837997437 1:-0.005376 2:0.0055450001 3:0.0093639996 #
-12251.407951208093436434864997864 1:-0.00012700001 2:-0.0099919997 3:0.000174 #
-147016.89541449712123721837997437 1:-0.0066960002 2:0.0039260001 3:0.014256 #
1047762.5095272600883617997169495 1:-0.001624 2:-0.0072059999 3:0.0030730001 #
-12251.407951208093436434864997864 1:-0.000203 2:-0.0099919997 3:0 #
-147016.89541449712123721837997437 1:0.002084 2:0.00089099997 3:0.014081 #
-12251.407951208093436434864997864 1:-0.0043489998 2:0.00075399998 3:0 #
-12251.407951208093436434864997864 1:-0.000205 2:-0.0099919997 3:0 #
-12251.407951208093436434864997864 1:-0.006813 2:-0.002783 3:0.011782 #
-147016.89541449712123721837997437 1:-0.006813 2:0.004317 3:0.013857 #
-12251.407951208093436434864997864 1:0.00077599997 2:-0.008862 3:0 #
-12251.407951208093436434864997864 1:-0.00071200001 2:-0.0099919997 3:0 #
-12251.407951208093436434864997864 1:0.0024629999 2:0.001195 3:0 #
-12251.407951208093436434864997864 1:-0.000205 2:-0.0099919997 3:0 #
-12251.407951208093436434864997864 1:-0.006813 2:-0.0031880001 3:0.012183 #
-12251.407951208093436434864997864 1:0.00024600001 2:-0.0099919997 3:0.002751 #
-12251.407951208093436434864997864 1:-0.000185 2:-0.0099919997 3:3.6000001e-05 #
-12251.407951208093436434864997864 1:-0.006813 2:-0.003757 3:0.01256 #
-12251.407951208093436434864997864 1:0.000117 2:-0.0099919997 3:0.0015820001 #
-12251.407951208093436434864997864 1:-0.000199 2:-0.0099919997 3:2.1e-05 #
-12251.407951208093436434864997864 1:9.6999996e-05 2:0.004464 3:0 #
-12251.407951208093436434864997864 1:0.000344 2:-0.0099919997 3:0.0076239998 #
-12251.407951208093436434864997864 1:-0.00020900001 2:-0.0099919997 3:0 #
-12251.407951208093436434864997864 1:-0.0063689998 2:-0.0025800001 3:0.010148 #
-12251.407951208093436434864997864 1:-0.00081400003 2:0.0044789999 3:0 #
-12251.407951208093436434864997864 1:-0.000147 2:-0.0099919997 3:0.0081890002 #
-147016.89541449712123721837997437 1:0.0021790001 2:0.003148 3:0.0090779997 #
-12251.407951208093436434864997864 1:-0.0065640002 2:-0.003517 3:0.01152 #
-12251.407951208093436434864997864 1:-0.0012460001 2:-0.0085920002 3:0 #
-12251.407951208093436434864997864 1:-0.002567 2:-0.00471 3:3.7999998e-05 #
-12251.407951208093436434864997864 1:-0.00020900001 2:-0.0099919997 3:0 #
-12251.407951208093436434864997864 1:-0.002993 2:-0.003394 3:0.00021899999 #
-12251.407951208093436434864997864 1:-0.003791 2:0.0037159999 3:0 #
-12251.407951208093436434864997864 1:-0.0020290001 2:-0.0053389999 3:2.7e-05 #
-12251.407951208093436434864997864 1:-0.0028530001 2:-0.0053440002 3:0.0025579999 #
-12251.407951208093436434864997864 1:0.0014449999 2:-0.0075579998 3:0 #
-12251.407951208093436434864997864 1:-0.00021 2:-0.0099919997 3:0 #
-12251.407951208093436434864997864 1:-0.006813 2:-0.0041809999 3:0.012689 #
-147016.89541449712123721837997437 1:-0.006813 2:0.003877 3:0.014243 #
-12251.407951208093436434864997864 1:-0.00021100001 2:-0.0099919997 3:0 #
-12251.407951208093436434864997864 1:-0.006813 2:-0.0044689998 3:0.012859 #
-12251.407951208093436434864997864 1:-0.002146 2:-0.0057310001 3:0 #
-12251.407951208093436434864997864 1:-0.006813 2:-0.0022559999 3:0.011128 #
1047762.5095272600883617997169495 1:0.0040560002 2:-0.0099919997 3:0.0094109997 #
-12251.407951208093436434864997864 1:9.8999997e-05 2:-0.0099919997 3:0.001757 #
-12251.407951208093436434864997864 1:-5.8000001e-05 2:-0.0099919997 3:0.00052200002 #
-12251.407951208093436434864997864 1:-0.002204 2:-0.0054859999 3:0 #
-12251.407951208093436434864997864 1:0.0020709999 2:-0.0059810001 3:0 #
-12251.407951208093436434864997864 1:-0.00021100001 2:-0.0099919997 3:0 #
-12251.407951208093436434864997864 1:-0.006813 2:-0.0025450001 3:0.01122 #
-12251.407951208093436434864997864 1:-0.003242 2:-0.0019759999 3:0 #
-12251.407951208093436434864997864 1:-0.002054 2:-0.005227 3:0.000112 #
-12251.407951208093436434864997864 1:0.0018720001 2:-0.006488 3:0 #
-12251.407951208093436434864997864 1:-0.000212 2:-0.0099919997 3:0 #
-12251.407951208093436434864997864 1:-0.00031500001 2:0.0041220002 3:0 #
-12251.407951208093436434864997864 1:-0.006813 2:-0.0036879999 3:0.012444 #
-147016.89541449712123721837997437 1:-0.0060379999 2:0.0026479999 3:0.014284 #
-12251.407951208093436434864997864 1:-0.0053599998 2:0.000588 3:0.003151 #
-12251.407951208093436434864997864 1:0.001453 2:-0.0073020002 3:0 #
-12251.407951208093436434864997864 1:-0.000212 2:-0.0099919997 3:0 #
-12251.407951208093436434864997864 1:-0.006813 2:-0.0027330001 3:0.011342 #
-147016.89541449712123721837997437 1:0.002788 2:0.0023380001 3:0.002324 #
-12251.407951208093436434864997864 1:-0.000214 2:-0.0099919997 3:0 #
-12251.407951208093436434864997864 1:-0.002446 2:-0.0063009998 3:0.002506 #
-12251.407951208093436434864997864 1:8e-06 2:-0.0036780001 3:0.00032799999 #
-12251.407951208093436434864997864 1:-0.004429 2:0.0047419998 3:0.0029829999 #
-12251.407951208093436434864997864 1:-0.0043939999 2:-0.00049900002 3:0 #
-12251.407951208093436434864997864 1:-0.000202 2:-0.0099919997 3:1.9999999e-05 #
-12251.407951208093436434864997864 1:-0.00075200002 2:-0.0099919997 3:0 #
-147016.89541449712123721837997437 1:0.001544 2:0.0013229999 3:0.014263 #
-12251.407951208093436434864997864 1:-0.0065620001 2:-0.0027590001 3:0.010992 #
-12251.407951208093436434864997864 1:-0.00021699999 2:-0.0099919997 3:0 #
-12251.407951208093436434864997864 1:-0.000218 2:-0.0099919997 3:0 #
-12251.407951208093436434864997864 1:-0.00022 2:-0.0099919997 3:0 #
-147016.89541449712123721837997437 1:-0.0021569999 2:0.0037789999 3:0.014257 #
-12251.407951208093436434864997864 1:-0.00022 2:-0.0099919997 3:0 #
1047762.5095272600883617997169495 1:-0.0061400002 2:-0.0027650001 3:0.00239 #
-12251.407951208093436434864997864 1:-0.0020359999 2:-0.00544 3:0.00012500001 #
-12251.407951208093436434864997864 1:0.001962 2:-0.005626 3:0.00017 #
-12251.407951208093436434864997864 1:-0.00022099999 2:-0.0099919997 3:0 #
-12251.407951208093436434864997864 1:-0.001691 2:-0.0067400001 3:0 #
-12251.407951208093436434864997864 1:0.001168 2:-0.0079319999 3:0 #
-12251.407951208093436434864997864 1:-0.000224 2:-0.0099919997 3:0 #
-12251.407951208093436434864997864 1:-0.0039519998 2:-0.003421 3:0.002964 #
-12251.407951208093436434864997864 1:-0.0057760002 2:-0.001948 3:0.007739 #
-12251.407951208093436434864997864 1:-0.000226 2:-0.0099919997 3:0 #
1047762.5095272600883617997169495 1:-0.006813 2:-0.001021 3:0.0018110001 #
-12251.407951208093436434864997864 1:-0.006813 2:-0.003572 3:0.012164 #
-147016.89541449712123721837997437 1:0.0028250001 2:-0.0041370001 3:0.012883 #
-12251.407951208093436434864997864 1:-0.00080400001 2:-0.0099919997 3:0.00033899999 #
-12251.407951208093436434864997864 1:0.001929 2:-0.005655 3:0.00052900001 #
-12251.407951208093436434864997864 1:-0.000229 2:-0.0099919997 3:0 #
-12251.407951208093436434864997864 1:-0.001281 2:-0.0079570003 3:0.00036199999 #
-147016.89541449712123721837997437 1:0.002264 2:-0.0025160001 3:0.014111 #
1047762.5095272600883617997169495 1:-0.0060410001 2:-0.00017100001 3:0.00059900002 #
-12251.407951208093436434864997864 1:-0.000231 2:-0.0099919997 3:0 #
-12251.407951208093436434864997864 1:-0.002415 2:-0.0046160002 3:6.2999999e-05 #
-147016.89541449712123721837997437 1:-0.006761 2:0.0041979998 3:0.013721 #
-12251.407951208093436434864997864 1:0.00087599998 2:-0.0085450001 3:0 #
-12251.407951208093436434864997864 1:-0.000233 2:-0.0099919997 3:0 #
-12251.407951208093436434864997864 1:-0.0023709999 2:-0.0046870001 3:3.1e-05 #
-12251.407951208093436434864997864 1:0.00163 2:-0.006422 3:0 #
-12251.407951208093436434864997864 1:-0.00020900001 2:-0.0099919997 3:4.2e-05 #
-12251.407951208093436434864997864 1:-0.0015369999 2:-0.0072679999 3:0.00052599999 #
-12251.407951208093436434864997864 1:0.001244 2:-0.0078699999 3:0.00124 #
-147016.89541449712123721837997437 1:-0.0016289999 2:0.0035929999 3:0.014253 #
-12251.407951208093436434864997864 1:-0.000245 2:-0.0099919997 3:0 #
-12251.407951208093436434864997864 1:-0.002205 2:-0.0050889999 3:0 #
-12251.407951208093436434864997864 1:0.00091599999 2:-0.0084570004 3:0.000589 #
-12251.407951208093436434864997864 1:-0.000245 2:-0.0099919997 3:0 #
1047762.5095272600883617997169495 1:-0.0043259999 2:-0.0029170001 3:0.000787 #
-12251.407951208093436434864997864 1:-0.0022730001 2:-0.005014 3:0 #
-12251.407951208093436434864997864 1:-0.000248 2:-0.0099919997 3:0 #
-12251.407951208093436434864997864 1:-0.00025000001 2:-0.0099919997 3:0 #
-12251.407951208093436434864997864 1:-0.0019980001 2:-0.0056230002 3:0 #
-12251.407951208093436434864997864 1:0.00082999998 2:-0.0084410002 3:0 #
-12251.407951208093436434864997864 1:-0.00605 2:-0.00019399999 3:0.0043179998 #
-12251.407951208093436434864997864 1:0.001511 2:0.002476 3:0 #
-12251.407951208093436434864997864 1:-0.00052100001 2:-0.0099919997 3:0.0084349997 #
-147016.89541449712123721837997437 1:0.00040300001 2:0.00355 3:0.011935 #
-12251.407951208093436434864997864 1:-0.001847 2:-0.0064920001 3:0.00028899999 #
-12251.407951208093436434864997864 1:-0.001559 2:-0.006819 3:4.8999998e-05 #
-12251.407951208093436434864997864 1:0.00079299998 2:-0.0084910002 3:0 #
-12251.407951208093436434864997864 1:-0.003239 2:-0.002077 3:0.00016900001 #
-12251.407951208093436434864997864 1:0.00080600003 2:-0.008444 3:0 #
-12251.407951208093436434864997864 1:-0.006813 2:-0.0040119998 3:0.012349 #
-147016.89541449712123721837997437 1:0.00072100002 2:0.0039809998 3:0.001601 #
-12251.407951208093436434864997864 1:-0.000256 2:-0.0099919997 3:0 #
-12251.407951208093436434864997864 1:-0.001994 2:-0.006122 3:9.0000001e-05 #
-12251.407951208093436434864997864 1:-0.001785 2:-0.0068310001 3:0.000321 #
-12251.407951208093436434864997864 1:-0.001549 2:-0.0068290001 3:0 #
-12251.407951208093436434864997864 1:-0.00025700001 2:-0.0099919997 3:0 #
-12251.407951208093436434864997864 1:0.0023000001 2:0.001416 3:0 #
-12251.407951208093436434864997864 1:-0.001532 2:-0.0068910001 3:0 #
-12251.407951208093436434864997864 1:0.001318 2:-0.0071399999 3:5.5e-05 #
-12251.407951208093436434864997864 1:-0.00023000001 2:-0.0099919997 3:2.6e-05 #
-12251.407951208093436434864997864 1:0.00074500003 2:-0.0085429996 3:0 #
-12251.407951208093436434864997864 1:-0.00026 2:-0.0099919997 3:0 #
-12251.407951208093436434864997864 1:-0.001595 2:-0.0069300001 3:0 #
-12251.407951208093436434864997864 1:0.00092800002 2:-0.0081059998 3:0 #
-12251.407951208093436434864997864 1:-0.000231 2:-0.0099919997 3:4.8999998e-05 #
-12251.407951208093436434864997864 1:-0.00171 2:-0.0067070001 3:0 #
-12251.407951208093436434864997864 1:-0.00026100001 2:-0.0099919997 3:0 #
-12251.407951208093436434864997864 1:-0.00026299999 2:-0.0099919997 3:0 #
-12251.407951208093436434864997864 1:-0.00026299999 2:-0.0099919997 3:0 #
-12251.407951208093436434864997864 1:-0.00026500001 2:-0.0099919997 3:0 #
-12251.407951208093436434864997864 1:0.000658 2:0.0031900001 3:0 #
-12251.407951208093436434864997864 1:-0.001266 2:-0.007731 3:0 #
-12251.407951208093436434864997864 1:-0.000158 2:-0.0099919997 3:0.00038099999 #
-12251.407951208093436434864997864 1:-0.00026599999 2:-0.0099919997 3:0 #
-12251.407951208093436434864997864 1:-0.001499 2:-0.0072639999 3:5.0999999e-05 #
-12251.407951208093436434864997864 1:-0.001454 2:-0.007495 3:9.0000001e-05 #
-12251.407951208093436434864997864 1:0.001356 2:-0.0069820001 3:0 #
-12251.407951208093436434864997864 1:-0.000267 2:-0.0099919997 3:0 #
1047762.5095272600883617997169495 1:0.001301 2:0.0034449999 3:0.002141 #
-12251.407951208093436434864997864 1:0.00054400001 2:-0.0099919997 3:0.0068009999 #
-12251.407951208093436434864997864 1:-0.00026999999 2:-0.0099919997 3:0 #
-12251.407951208093436434864997864 1:-0.001089 2:-0.0099919997 3:0.00034900001 #
-12251.407951208093436434864997864 1:-0.003519 2:0.0049999999 3:0.001754 #
-12251.407951208093436434864997864 1:-0.006025 2:-0.001191 3:0.0048639998 #
-12251.407951208093436434864997864 1:-0.0011549999 2:-0.0081019998 3:0 #
-12251.407951208093436434864997864 1:0.00050299999 2:-0.0099919997 3:0.0064980001 #
-12251.407951208093436434864997864 1:-0.00026999999 2:-0.0099919997 3:0 #
-12251.407951208093436434864997864 1:-0.006813 2:-0.005043 3:0.010937 #
-147016.89541449712123721837997437 1:-0.0026219999 2:0.0048130001 3:0.012613 #
-12251.407951208093436434864997864 1:-0.00021 2:-0.0099919997 3:0.000142 #
-12251.407951208093436434864997864 1:-1.8999999e-05 2:-0.0099919997 3:0.00105 #
-12251.407951208093436434864997864 1:-0.0012460001 2:-0.0078059998 3:0 #
-147016.89541449712123721837997437 1:-0.0064579998 2:0.0044630002 3:0.013091 #
-12251.407951208093436434864997864 1:-0.000182 2:-0.0099919997 3:0.000287 #
-12251.407951208093436434864997864 1:-0.00026999999 2:-0.0099919997 3:0 #
-12251.407951208093436434864997864 1:-0.000271 2:-0.0099919997 3:0 #
-12251.407951208093436434864997864 1:-0.001554 2:-0.0072610001 3:0 #
-12251.407951208093436434864997864 1:0.00013 2:-0.0099919997 3:0.002107 #
-12251.407951208093436434864997864 1:6.7000001e-05 2:-0.0099919997 3:0.001684 #
-12251.407951208093436434864997864 1:0.002474 2:0.00055699999 3:0 #
-147016.89541449712123721837997437 1:-0.003633 2:-0.000272 3:0.014284 #
-12251.407951208093436434864997864 1:-0.00096600002 2:0.0050880001 3:0.001251 #
-12251.407951208093436434864997864 1:-0.00028400001 2:0.0043899999 3:0.00041199999 #
-147016.89541449712123721837997437 1:-0.006813 2:0.0040219999 3:0.014038 #
-12251.407951208093436434864997864 1:-0.00027700001 2:-0.0099919997 3:0 #
-12251.407951208093436434864997864 1:-0.00028099999 2:-0.0099919997 3:0 #
-12251.407951208093436434864997864 1:-0.001718 2:-0.0070090001 3:0 #
-12251.407951208093436434864997864 1:0.000172 2:-0.0099919997 3:0.002533 #
-12251.407951208093436434864997864 1:0.000178 2:-0.0099919997 3:0.002596 #
-12251.407951208093436434864997864 1:-0.00028099999 2:-0.0099919997 3:0 #
-12251.407951208093436434864997864 1:-0.001648 2:-0.007241 3:0 #
-12251.407951208093436434864997864 1:-0.000226 2:-0.0099919997 3:0.000143 #
-12251.407951208093436434864997864 1:-0.00028099999 2:-0.0099919997 3:0 #
-12251.407951208093436434864997864 1:-0.001471 2:-0.0076279999 3:7.3000003e-05 #
-12251.407951208093436434864997864 1:0.00024699999 2:-0.0099919997 3:0.0032579999 #
-12251.407951208093436434864997864 1:-0.001351 2:-0.0099919997 3:0.001326 #
-12251.407951208093436434864997864 1:-6.0999999e-05 2:-0.0099919997 3:0.0010319999 #
-12251.407951208093436434864997864 1:-0.00028400001 2:-0.0099919997 3:0 #
-12251.407951208093436434864997864 1:-0.001462 2:-0.0077920002 3:0.00015399999 #
-12251.407951208093436434864997864 1:-0.00028499999 2:-0.0099919997 3:0 #
-12251.407951208093436434864997864 1:-0.00028899999 2:-0.0099919997 3:0 #
